conv2d/kernel:0
(3, 3, 3, 64)
[[[[-1.21792346e-01  2.17413902e-01  8.51029530e-02 ... -4.66098264e-02
    -1.85585227e-02  1.64920278e-02]
   [-1.26404777e-01  2.04294622e-01  2.49954816e-02 ...  7.06549212e-02
     9.70602557e-02 -6.82945251e-02]
   [ 7.47976126e-03  2.04064295e-01 -9.56426263e-02 ... -7.98991397e-02
     1.42016068e-01 -3.69513445e-02]]

  [[-4.26912634e-03  1.56021088e-01  2.18063876e-01 ...  1.11435942e-01
    -2.82363296e-02 -1.82367060e-02]
   [-5.56431748e-02  4.51676250e-02  2.81162411e-01 ...  1.18672095e-01
     3.94749977e-02 -8.17597732e-02]
   [ 4.87144589e-02  1.68644398e-01  1.99598715e-01 ...  1.13654368e-01
    -7.41340518e-02 -7.55638257e-02]]

  [[ 1.90040171e-01 -2.45667063e-02 -1.30520716e-01 ...  9.32512153e-03
     1.12610295e-01 -9.77271870e-02]
   [ 1.44558504e-01  4.30073962e-02 -1.31001174e-01 ... -5.41678965e-02
     1.28687531e-01  4.94971089e-02]
   [ 1.12632215e-01 -1.28195673e-01 -1.01592727e-01 ... -1.80199277e-02
     6.76615015e-02  1.88389216e-02]]]


 [[[ 2.27907822e-01  1.59031510e-01  1.29469559e-02 ...  1.90402344e-01
     8.96807611e-02 -1.77597761e-01]
   [ 2.73489058e-01  1.24241464e-01 -9.95527580e-02 ...  1.39252111e-01
    -6.96194917e-02 -7.03886896e-02]
   [ 2.08532080e-01  7.03429505e-02 -6.67214841e-02 ...  1.12410963e-01
    -5.71896182e-03 -1.69808209e-01]]

  [[-4.92150299e-02 -4.03134152e-02  7.68205076e-02 ...  6.67091012e-01
    -2.15502560e-01 -6.16714545e-02]
   [ 5.99497855e-02 -1.76394060e-01  1.94949195e-01 ...  5.17276227e-01
    -2.29935318e-01 -2.13688508e-01]
   [-1.30427659e-01 -1.10265210e-01  1.45345420e-01 ...  6.15524113e-01
    -1.32257208e-01 -1.96893096e-01]]

  [[-2.41756395e-01 -1.43140912e-01 -9.66851339e-02 ...  1.07928157e-01
     1.52081251e-01  4.15806584e-02]
   [-1.90760180e-01 -1.07067265e-01 -1.61437154e-01 ...  5.31357341e-02
     2.28723213e-01 -3.01400572e-02]
   [-1.76240101e-01 -1.73028573e-01 -1.83367655e-01 ... -5.16388454e-02
     1.44636676e-01 -2.62428634e-02]]]


 [[[ 7.38235016e-04 -1.02020822e-01  8.79930779e-02 ... -9.26203355e-02
    -1.07974164e-01  1.48511305e-01]
   [ 1.25580564e-01 -1.10325687e-01 -3.49384584e-02 ... -1.25523075e-01
    -4.10295837e-02  2.34164357e-01]
   [ 2.22837143e-02 -2.44836122e-01 -8.76331553e-02 ...  1.48471240e-02
    -1.40605628e-01  1.07072607e-01]]

  [[-6.82208613e-02 -1.62205286e-02 -4.68859784e-02 ...  1.52277946e-01
     1.38997003e-01  2.87286788e-01]
   [-1.13301761e-01 -2.73958384e-03 -1.49491951e-01 ...  1.03678130e-01
     4.88729142e-02  2.02201098e-01]
   [ 3.95688303e-02 -1.04183845e-01 -1.01493999e-01 ...  1.47833794e-01
     1.53574333e-01  2.68565893e-01]]

  [[ 2.94723101e-02  1.69056773e-01  8.19398314e-02 ...  2.15244349e-02
    -6.26993924e-02  7.07964450e-02]
   [-2.82899011e-02  6.20341972e-02  1.29806772e-01 ...  8.53573345e-03
     4.47114222e-02  3.08249786e-04]
   [ 4.12779488e-02  8.45770165e-02 -3.23142693e-03 ...  1.10839263e-01
     2.53102696e-03  7.31970742e-02]]]]
batch_normalization/gamma:0
(64,)
[1.0024382  1.1052397  0.81609136 0.8775804  0.9445536  0.6409147
 0.9530316  0.866651   1.0445633  1.0602461  1.0118039  1.1864394
 0.6962249  0.8951763  0.9831824  0.89296055 0.9822013  0.9376621
 1.065472   0.78421307 0.7587678  1.3523409  0.8754933  0.8165478
 0.86880213 0.8703347  1.0979007  1.3607136  1.021126   0.99963623
 0.8889338  1.010638   1.151519   0.90497446 1.0019741  0.95979464
 1.0157281  1.035056   0.9580441  1.0146013  0.82174575 0.94157076
 1.2128091  0.6833662  0.9832962  1.1178893  0.71558    1.1379366
 1.1580329  0.7583107  0.93126976 0.9046384  1.1153349  1.3235348
 1.013364   1.108687   0.8575397  1.182585   1.0108882  1.0463711
 0.98695487 1.2119452  0.77744704 1.0640321 ]
batch_normalization/beta:0
(64,)
[ 0.09778841 -0.10956189 -0.18397324 -0.10135482 -0.3420838  -0.31549048
  0.1352797  -0.35439032  0.11897427 -0.20719966 -0.15824963 -0.13602503
 -0.33893877  0.14063808  0.11584227 -0.31140107 -0.19963475 -0.23503229
 -0.23636332 -0.26040906 -0.34043205  0.27419525 -0.27693588 -0.34510025
  0.06041043  0.04704067 -0.10444779 -0.25591612 -0.3029909  -0.28146008
  0.11672772  0.14518565  0.14435175 -0.40555835 -0.30870524 -0.352808
 -0.40755832  0.13155355 -0.11187518 -0.02106032 -0.32343236 -0.395409
 -0.28467536 -0.07474709  0.05319969  0.13264953 -0.25861764 -0.1820679
 -0.11684367 -0.16470507 -0.24019997  0.08884134  0.13358097 -0.25537348
  0.093183   -0.36027768 -0.22554602 -0.09976917 -0.02560467 -0.20597434
  0.06544933 -0.3232398  -0.35962301  0.21380146]
resnet_block/conv2d_1/kernel:0
(3, 3, 64, 64)
[[[[-0.03351029 -0.04438747  0.0488907  ...  0.13994256  0.07814549
     0.1209554 ]
   [-0.05231229 -0.10116213  0.13776956 ...  0.0017084   0.1243116
     0.13884605]
   [ 0.03453665 -0.04607388  0.02513165 ...  0.06727278  0.12271716
    -0.04014698]
   ...
   [-0.04719754  0.20364925 -0.09738842 ... -0.11328432 -0.01688247
    -0.02813269]
   [-0.09575428  0.05669689  0.1193738  ... -0.00269548  0.08747033
     0.06380159]
   [-0.10986616 -0.07599314 -0.17758948 ... -0.00352899 -0.0842168
     0.04626083]]

  [[-0.09447617  0.14459582 -0.14765328 ... -0.12780492  0.04625097
    -0.09066994]
   [-0.03162861 -0.13243565 -0.1714681  ...  0.18613967 -0.01445889
     0.03642737]
   [ 0.02720292  0.00547833 -0.1454686  ...  0.01046593  0.11044068
     0.01447487]
   ...
   [ 0.01430461 -0.03357405  0.03918131 ... -0.1660355   0.12128359
    -0.05375075]
   [ 0.0373076  -0.17637599 -0.05107817 ... -0.07855181  0.15372498
     0.07533801]
   [-0.20711824 -0.15197547 -0.16844967 ...  0.19421989 -0.07901476
     0.10177188]]

  [[-0.03007729  0.10401038 -0.13431723 ... -0.17803521  0.07163162
    -0.0729161 ]
   [-0.03404849 -0.05866292 -0.11034486 ... -0.06433102 -0.04316472
    -0.09697336]
   [-0.02555381 -0.20359129  0.15295407 ...  0.0601686  -0.04195461
    -0.17960635]
   ...
   [ 0.0275038   0.15764946  0.17789175 ... -0.1771189   0.12709573
     0.1307496 ]
   [-0.16932307  0.05230595 -0.12313815 ...  0.075873    0.13871984
    -0.08134066]
   [ 0.00219143 -0.3021053  -0.294157   ...  0.17220856 -0.11231041
     0.10215174]]]


 [[[ 0.04339054  0.06718765 -0.02520785 ... -0.12228094 -0.01074238
     0.05659468]
   [ 0.17942874  0.03070412  0.07648715 ... -0.01438818 -0.01474797
    -0.03896456]
   [-0.06892546 -0.01525429 -0.12759688 ...  0.00038236  0.03403213
    -0.27741662]
   ...
   [-0.18616627 -0.07568704 -0.12970938 ... -0.16770102 -0.0759574
     0.0839643 ]
   [ 0.20656933  0.01166295 -0.01219508 ... -0.18719913  0.2005737
    -0.16663209]
   [ 0.03398297 -0.02055655  0.05873165 ...  0.11209773 -0.04392758
     0.04905067]]

  [[-0.1117797   0.12548015  0.09711515 ...  0.00410629 -0.15914045
    -0.01322137]
   [-0.14264372  0.29317203 -0.09713437 ... -0.16254039 -0.07311194
    -0.11441385]
   [-0.02080882  0.00780395 -0.1783366  ... -0.1629043   0.10599876
    -0.1540554 ]
   ...
   [-0.2300165  -0.08316983 -0.08106209 ...  0.08436862  0.20542006
     0.2090019 ]
   [ 0.06474826 -0.03714903 -0.1074129  ... -0.13329409  0.12113694
     0.07402829]
   [-0.00476401 -0.08521682 -0.11894842 ...  0.02033447 -0.09989133
     0.12015753]]

  [[-0.12987223 -0.0454524  -0.02260222 ...  0.17512585  0.04953167
    -0.04366064]
   [-0.13157675 -0.13736647 -0.04737661 ... -0.05435544  0.08624333
    -0.07338558]
   [ 0.17487739 -0.2594759   0.16771561 ... -0.13670653 -0.03573421
    -0.2582344 ]
   ...
   [ 0.02959818  0.00363233  0.06100959 ...  0.03996769  0.13296269
     0.30213052]
   [-0.05692841  0.04474249  0.18584158 ... -0.01150191 -0.02269308
    -0.11368467]
   [-0.01710414  0.11709931 -0.10164301 ... -0.03454498 -0.19279052
    -0.12214189]]]


 [[[-0.16938415 -0.01583802  0.00306108 ... -0.02354989  0.20102458
     0.08262462]
   [-0.23024605  0.09650848  0.3175998  ...  0.06858407 -0.3300423
    -0.08084536]
   [-0.16658162  0.07144886  0.04628102 ... -0.12583293 -0.10542656
    -0.06163098]
   ...
   [ 0.02748311 -0.18434037 -0.08216941 ... -0.12149651 -0.08821718
     0.20386648]
   [-0.1144675   0.08483493  0.04497474 ...  0.13557702  0.20766567
    -0.04549369]
   [-0.09285926  0.08832176 -0.04112904 ...  0.03189631  0.17062892
     0.01105784]]

  [[-0.06589241  0.00861409 -0.07719213 ...  0.00905796  0.01041064
     0.07602873]
   [-0.20130886  0.0758545  -0.00716157 ... -0.00930752 -0.30442467
     0.26197895]
   [-0.08887767 -0.14079589 -0.12337983 ...  0.07009336  0.07315803
    -0.16789778]
   ...
   [ 0.14403223 -0.05543526 -0.11776598 ...  0.11814063 -0.02388328
     0.2269475 ]
   [-0.04166702  0.02434085  0.09282491 ... -0.02150586 -0.03112578
     0.08794438]
   [ 0.07880899  0.14054716  0.02611905 ... -0.09070198 -0.15600997
    -0.21081801]]

  [[ 0.05578721 -0.16822784 -0.17053425 ...  0.07465862  0.05070047
    -0.00565716]
   [ 0.05161289 -0.16351867 -0.16634223 ...  0.12022915  0.08585178
     0.15776438]
   [-0.03744124 -0.07175633  0.15649089 ... -0.04636335  0.129712
    -0.05933977]
   ...
   [ 0.1506504   0.20234549 -0.04601423 ...  0.05944195 -0.03368175
     0.07437032]
   [ 0.01477213 -0.10827015  0.24855526 ...  0.16741803 -0.04000704
     0.22928785]
   [ 0.02364763  0.115465    0.13198249 ... -0.03526472 -0.13057826
    -0.19380893]]]]
resnet_block/batch_normalization_1/gamma:0
(64,)
[0.7156271  0.9094268  0.7996012  0.98054004 1.068279   0.9448982
 0.90759474 0.81617445 1.0900458  0.9244944  0.8091453  0.86627865
 1.0073441  1.1135422  1.0359734  0.92596126 0.9824721  0.881334
 0.712286   0.95016915 1.1511416  1.3249227  1.2108899  1.1157393
 1.0323235  0.8986161  0.6773352  1.096223   0.9464583  1.1198982
 0.8336658  0.64259326 0.8452339  1.169479   0.8945979  1.1698437
 1.0375912  0.74951893 1.088334   1.0890256  0.9065208  1.093706
 0.5658607  1.0629808  1.0736266  0.7332071  0.96829456 1.1459926
 1.0348041  1.0233539  1.0293783  0.7274561  0.6866235  1.1252668
 1.008868   1.2428867  1.3273057  0.98832774 0.87947774 1.0010637
 0.9769615  1.0315018  1.0478319  0.98345   ]
resnet_block/batch_normalization_1/beta:0
(64,)
[-0.24830176 -0.14781709 -0.1927684  -0.14817859 -0.15013433 -0.22743398
 -0.17619804 -0.13186136 -0.20365834 -0.15926927 -0.24169263 -0.13703443
 -0.04690649 -0.00235595 -0.2700498  -0.02966439 -0.07787095 -0.09450609
 -0.23722444 -0.16739637 -0.02204537  0.05074033 -0.04432692  0.02648129
 -0.0910615  -0.19476293 -0.21533753  0.02052803 -0.19841231 -0.1620019
 -0.11173434 -0.41789186 -0.3625373  -0.1649703  -0.18407132 -0.2263619
 -0.22318365 -0.20860508 -0.00404597 -0.13488552 -0.22937481  0.0397144
 -0.40044594 -0.19025244 -0.10170816 -0.2468971  -0.1035315  -0.04842683
 -0.12275429 -0.16046774 -0.15475924 -0.27176392 -0.20292556  0.08529671
 -0.04677062  0.09386669  0.12971522 -0.0610297  -0.1846443  -0.11882207
 -0.07364517 -0.09326627 -0.18046212 -0.17040859]
resnet_block/conv2d_2/kernel:0
(3, 3, 64, 64)
[[[[ 0.12086527  0.10605635  0.01918202 ...  0.25429663 -0.04051765
     0.14902836]
   [-0.07990258 -0.23584051  0.06122355 ...  0.15118569 -0.12235037
     0.04596133]
   [ 0.0314513  -0.07964385  0.06339278 ... -0.10426479 -0.10441124
     0.0836003 ]
   ...
   [ 0.1334889   0.0273872  -0.00974788 ... -0.15183464  0.10355665
    -0.19084422]
   [-0.09122536  0.21281667 -0.1136307  ...  0.00492192 -0.10696001
     0.11717609]
   [ 0.17155284  0.2142365   0.06408332 ... -0.10209488  0.28283542
    -0.3802476 ]]

  [[ 0.11505173 -0.04081807  0.05856069 ...  0.02800357  0.08411731
     0.01447424]
   [-0.08244988 -0.08121844 -0.12682325 ...  0.08587415 -0.07252453
     0.10755635]
   [-0.02873469  0.04917142  0.07073373 ...  0.12392621  0.0641674
     0.10740315]
   ...
   [ 0.04379827  0.04210215  0.04131117 ... -0.12352572  0.06195218
    -0.23864992]
   [-0.12888782  0.07439274  0.00393214 ... -0.11627033 -0.2715331
     0.16588141]
   [-0.00237745  0.16888471  0.03029357 ... -0.15921688  0.07103465
    -0.28128007]]

  [[ 0.0199604  -0.15872794  0.04158342 ... -0.03293409 -0.07678172
    -0.02339593]
   [-0.07071741 -0.12772916  0.05344832 ... -0.04801456 -0.09141574
    -0.08465663]
   [-0.01838997  0.06210791  0.22545192 ...  0.21133861  0.20287415
     0.02522584]
   ...
   [ 0.08932389  0.01301859 -0.0295572  ...  0.03759841 -0.04084609
    -0.27072096]
   [ 0.01434055 -0.18170947  0.02247514 ...  0.02957722 -0.16054885
     0.10558266]
   [-0.06143103 -0.12916362 -0.02940014 ... -0.01015042 -0.07350659
    -0.17335491]]]


 [[[ 0.11749126  0.02344485  0.03760948 ...  0.00379684 -0.05607161
    -0.06590269]
   [-0.20545705 -0.08968367 -0.05110133 ... -0.00232977  0.14452451
    -0.07085968]
   [-0.20605743  0.17524466 -0.07657792 ... -0.10321636  0.10799256
    -0.01377064]
   ...
   [ 0.20038132 -0.07094849  0.00975353 ...  0.06354902 -0.03329915
     0.07316753]
   [-0.26909065  0.05297963 -0.26866788 ...  0.01302151 -0.20985152
     0.02415146]
   [ 0.19241768  0.08712448 -0.01145753 ... -0.06324188  0.05993682
    -0.05396465]]

  [[ 0.06633921 -0.08125917  0.1226907  ... -0.07060642  0.14602855
    -0.01025681]
   [-0.24225795  0.08838125  0.05991811 ...  0.16247526  0.10557979
    -0.00307242]
   [-0.155211    0.15118435 -0.04260509 ... -0.0889869   0.05841326
    -0.21466005]
   ...
   [ 0.09360278 -0.04783681 -0.15522161 ... -0.09600391 -0.09114541
    -0.02728475]
   [ 0.02416791 -0.19434492 -0.24363326 ... -0.07839702 -0.11218059
     0.05554546]
   [-0.04060323 -0.04403372 -0.00891236 ...  0.1398497  -0.20883991
     0.07093974]]

  [[ 0.00809681  0.04722624  0.05326876 ...  0.09958046  0.12116706
    -0.06249633]
   [-0.08621949  0.04453023  0.10429394 ...  0.0789686   0.22082582
    -0.06287786]
   [-0.0144721   0.07540525 -0.19275124 ...  0.06471691  0.09151061
    -0.08581096]
   ...
   [ 0.02046352 -0.12138408 -0.04157468 ... -0.19233966 -0.18278101
    -0.09267558]
   [ 0.01879447 -0.1563572  -0.17530465 ... -0.02343553 -0.03583829
    -0.03840329]
   [-0.26301277  0.03100177  0.05569621 ...  0.05770195 -0.19950579
     0.08767457]]]


 [[[ 0.14918393  0.0364465  -0.03629962 ... -0.05980723  0.15325521
    -0.18325876]
   [-0.04921989  0.1450862  -0.15578745 ... -0.09328511 -0.18830115
    -0.33553353]
   [-0.06836419  0.20482506 -0.10289273 ...  0.0754042   0.02705497
    -0.14744271]
   ...
   [ 0.0490708  -0.11173416 -0.00611588 ...  0.10468221 -0.24274553
     0.15140684]
   [-0.14177212 -0.1433764  -0.23059303 ...  0.15180685 -0.18483192
    -0.02586989]
   [ 0.1861432  -0.16230151  0.09202892 ... -0.03332556 -0.26399776
     0.00215845]]

  [[-0.0795914   0.03976909 -0.10312365 ... -0.19992644  0.00071121
    -0.07837021]
   [-0.02124024  0.03046481 -0.03943557 ... -0.18369359 -0.03231477
    -0.3057573 ]
   [ 0.00489116 -0.00736039 -0.20561774 ... -0.05926915 -0.05401706
    -0.18152696]
   ...
   [ 0.00908997  0.02164937  0.09102476 ... -0.04349164  0.1508081
     0.08574732]
   [-0.02520694 -0.02114996 -0.30138814 ... -0.06548069  0.00936212
    -0.06827666]
   [-0.13288122 -0.1877001   0.14686114 ...  0.02404098 -0.04443742
     0.16965029]]

  [[-0.06401812 -0.01501912 -0.07048856 ... -0.10795824 -0.0923643
    -0.12058914]
   [-0.03082116  0.02008394 -0.13737199 ...  0.06033441 -0.00786159
    -0.10844305]
   [ 0.0243319  -0.01346942 -0.07301332 ...  0.19030002  0.15355593
     0.01493404]
   ...
   [ 0.02647938  0.0085903   0.01638769 ... -0.04173338  0.08515456
    -0.1097056 ]
   [-0.06743035  0.01964634 -0.16371545 ... -0.09730583  0.01661407
    -0.05579643]
   [-0.03685284 -0.01179021  0.102546   ...  0.08705581  0.07418585
     0.07522859]]]]
resnet_block/batch_normalization_2/gamma:0
(64,)
[1.0984477  1.011638   0.7961577  1.0938008  1.1666924  0.8072021
 1.1587709  0.9495892  0.8969103  1.0574726  0.93844444 0.9977873
 0.7491273  1.1784581  0.8757068  1.0344801  0.94429916 0.8701631
 0.73952067 0.7064798  0.990347   1.1762727  1.0065936  0.8257712
 1.0022553  1.0760728  1.0379462  0.8558091  1.1691903  0.9571649
 1.187837   1.1147609  0.82725203 1.0209308  0.85424924 0.88363117
 1.0054562  1.0450432  1.2914295  0.96241796 0.8896427  0.883745
 0.95543015 0.813034   1.0946605  0.95930886 0.9973926  0.8911794
 1.0782112  1.0901604  0.92907166 0.8212551  1.0893271  0.97672313
 1.0479041  0.9684013  0.9995165  1.1447612  1.1221436  1.0184381
 0.84706855 0.78007114 1.0752571  1.0965579 ]
resnet_block/batch_normalization_2/beta:0
(64,)
[-0.22692469 -0.18731308 -0.16485809 -0.16452241 -0.13976379 -0.26887485
 -0.03264529 -0.14862746 -0.16907007 -0.15318452 -0.13799044 -0.29152453
 -0.29821083 -0.34629995 -0.14281772 -0.11100271 -0.13836752  0.01030155
 -0.07061913 -0.38142407 -0.2159499  -0.2720205  -0.2181969  -0.20703267
 -0.11173728 -0.22718446 -0.2824397  -0.22014154 -0.07002942 -0.22839119
 -0.10955188 -0.1494703  -0.20410411 -0.12581861 -0.28809246 -0.27563977
 -0.01657151  0.02504923 -0.17510368 -0.2809485  -0.030614   -0.10630516
 -0.20614164 -0.27715743 -0.0109855  -0.14109623 -0.20722915 -0.12927024
 -0.10912865 -0.11730863 -0.15345424 -0.17580101  0.00285296 -0.18139766
 -0.26988843 -0.11459757 -0.15805417 -0.09280398 -0.19731033 -0.14885695
 -0.26104277 -0.25160825 -0.19409694 -0.05389941]
resnet_block_1/conv2d_3/kernel:0
(3, 3, 64, 64)
[[[[-0.19842124  0.19369917 -0.10566613 ... -0.02925489  0.11089692
    -0.11219869]
   [-0.29218575  0.12248602 -0.13870561 ... -0.01793948 -0.02065791
    -0.04198463]
   [ 0.08687352  0.03540577  0.10381646 ... -0.07065424 -0.06031491
     0.08617655]
   ...
   [ 0.10808901 -0.11278374  0.09913852 ... -0.00970205  0.04336241
    -0.14278054]
   [ 0.0781512   0.09955952 -0.2831624  ...  0.11281448  0.04420088
     0.0373788 ]
   [ 0.2780196   0.03346377  0.05053601 ...  0.13227634 -0.11874843
    -0.22028743]]

  [[-0.03440438  0.03969254 -0.02150985 ... -0.01185725  0.07208142
     0.00994079]
   [-0.19348797  0.07501926 -0.11890284 ... -0.15888965  0.11707952
     0.229106  ]
   [ 0.1380065   0.0777033   0.05652846 ...  0.12522107 -0.09874325
    -0.11979392]
   ...
   [-0.04364344 -0.05136091  0.0568081  ...  0.14148985 -0.0620182
    -0.12788504]
   [-0.24078149  0.14136276 -0.23177579 ...  0.13520351  0.03829274
     0.24658635]
   [ 0.08125651  0.08780366 -0.00242976 ...  0.2723748  -0.09910694
    -0.12968867]]

  [[ 0.0457811  -0.02516429  0.03546193 ... -0.08365119  0.06765021
     0.00750701]
   [-0.31409058  0.13106394 -0.15623881 ... -0.08863585  0.08456706
     0.12970905]
   [-0.17299224  0.05267552 -0.01574156 ...  0.10806458  0.01334413
     0.01470763]
   ...
   [-0.15377933  0.03565532 -0.0121761  ... -0.08426334 -0.00053151
    -0.12443982]
   [-0.22628002  0.07652642 -0.15172029 ...  0.02764668  0.17381169
     0.22431739]
   [-0.04526187  0.03599319 -0.16160166 ...  0.05715306  0.1320397
    -0.02826406]]]


 [[[ 0.05806179  0.00285176 -0.04628224 ... -0.07397428 -0.00173235
     0.21166097]
   [-0.087456    0.01645066 -0.30793193 ... -0.09570355 -0.01811177
    -0.10703537]
   [-0.05949301 -0.18002154 -0.01839853 ...  0.04039417 -0.04916024
     0.16874506]
   ...
   [ 0.02747733 -0.25817138 -0.02195239 ... -0.04176675 -0.08194669
     0.06588497]
   [-0.22936568  0.04629508 -0.23953995 ... -0.05779941 -0.07991159
    -0.07454921]
   [ 0.02637236 -0.07034024 -0.07168918 ... -0.06479432 -0.04166937
    -0.10318705]]

  [[ 0.11373163  0.07490205 -0.19413783 ...  0.08285517 -0.03789184
     0.17711267]
   [-0.02580636 -0.08289667 -0.24375024 ... -0.10938755  0.08884731
     0.10390957]
   [-0.01355608 -0.02268453  0.02990166 ...  0.04332774 -0.05673195
     0.06419186]
   ...
   [ 0.10191471 -0.01452501 -0.06518826 ...  0.00653106 -0.17776388
     0.11074664]
   [-0.00146188  0.00594235 -0.33226544 ... -0.10287096 -0.0689828
    -0.02907372]
   [ 0.0616249   0.12371968 -0.09499336 ...  0.00113789  0.02316055
    -0.04817577]]

  [[ 0.02059169 -0.06763159 -0.2173022  ... -0.01268963 -0.05969816
    -0.17419541]
   [-0.14066093 -0.03669056 -0.1449849  ... -0.05655662  0.02519532
     0.01709616]
   [ 0.00416345 -0.03978154 -0.13505995 ...  0.09949421 -0.06180561
    -0.17549098]
   ...
   [ 0.06323165 -0.0268295   0.13184938 ...  0.19519651  0.02420036
     0.01905227]
   [-0.03303259  0.05652604 -0.12242177 ...  0.01011418  0.15167217
    -0.02380648]
   [-0.07029282  0.13400576 -0.10031082 ...  0.10284989 -0.04124445
     0.00201848]]]


 [[[ 0.0860872  -0.23111068  0.07734884 ... -0.11607538 -0.03552808
     0.16989394]
   [-0.22606102  0.03525539 -0.06493795 ... -0.17780703 -0.01745892
    -0.06830415]
   [ 0.03086456 -0.10359146  0.12633677 ... -0.07387581 -0.13316867
    -0.09648062]
   ...
   [-0.11473969 -0.14121914 -0.17385611 ... -0.22389327 -0.05648465
     0.01401652]
   [-0.06594756  0.00195438 -0.0738645  ... -0.1476648   0.00098102
    -0.15143341]
   [-0.19792719 -0.1229202   0.06469468 ... -0.27710682 -0.21135019
    -0.08289382]]

  [[ 0.1539912  -0.08425827 -0.04207425 ...  0.06566163 -0.23335324
     0.07398196]
   [-0.1351371  -0.1758083  -0.09059986 ... -0.13174118  0.1146057
    -0.14439172]
   [-0.01882664 -0.15272573  0.03323919 ... -0.09676848 -0.09267851
     0.03815139]
   ...
   [ 0.07037279 -0.00350301 -0.1821327  ... -0.11567308 -0.10795884
    -0.09771488]
   [ 0.00105547 -0.02810254 -0.10322787 ... -0.16551355 -0.12433583
    -0.26267695]
   [-0.18570293 -0.14785217 -0.0162929  ... -0.2511598  -0.15657732
    -0.09912953]]

  [[ 0.01218722  0.04036386 -0.10975612 ...  0.13531774 -0.22317007
    -0.143259  ]
   [-0.08843328 -0.12463386  0.0272705  ...  0.00393411  0.05725475
    -0.17389053]
   [-0.07360934  0.02519115 -0.02742719 ... -0.02821077 -0.08306555
    -0.08221345]
   ...
   [-0.02872296  0.0611694   0.0010779  ...  0.06037646 -0.06807248
    -0.06063988]
   [-0.02485888 -0.06327903 -0.07230698 ... -0.10329174 -0.09806421
    -0.26403156]
   [ 0.07793077  0.07508679 -0.03681537 ... -0.09059773 -0.31488776
    -0.10949568]]]]
resnet_block_1/batch_normalization_3/gamma:0
(64,)
[0.9756625  1.0189424  0.96507466 1.1378016  0.83167124 1.0835183
 1.165683   0.93258744 0.9966915  1.0642942  0.90557754 1.0120045
 1.239183   1.012662   1.0468833  0.78468007 0.7649746  1.024469
 1.0946516  1.1267366  1.1174451  1.0983176  0.99790543 0.8990209
 0.7284349  1.0762677  0.8602354  1.2944899  0.7440979  1.0696282
 0.94782317 0.9589179  0.9706667  1.0059799  0.9858119  0.9768148
 0.79277277 1.0264899  0.8999345  0.9167957  1.0728242  0.98230034
 0.8745603  0.91962    1.001107   0.9961805  1.2642697  1.0368918
 0.73513615 1.0145739  0.8424653  1.026161   0.9565776  1.0316794
 0.8643444  0.8234894  1.1515682  1.0396429  0.8735287  1.0634942
 1.1309383  1.1811551  0.6600066  0.9535052 ]
resnet_block_1/batch_normalization_3/beta:0
(64,)
[-0.15221845 -0.10006438 -0.25568545 -0.05930665 -0.15785237 -0.2125243
 -0.06408431 -0.18580158 -0.24569319  0.05488069 -0.01722628 -0.10948552
  0.09893488 -0.21002164 -0.13879952 -0.16971241 -0.44008544  0.0082492
 -0.24249275 -0.1411583  -0.14333245 -0.14957885 -0.16825642 -0.24128231
 -0.36194587 -0.10677154 -0.33035725 -0.06881272 -0.28808203 -0.1404709
 -0.35885105 -0.27700883 -0.05288466 -0.2594967  -0.11290604 -0.18487121
 -0.35168758 -0.20092857 -0.15966143 -0.12371924 -0.13316295 -0.2742672
 -0.08415668 -0.20096879 -0.06676558 -0.2538646  -0.12270572 -0.17258823
 -0.30850056 -0.24962811 -0.26564828 -0.0573666  -0.19156939 -0.07207285
 -0.06759404 -0.21783325 -0.0759178  -0.04810341 -0.21787763 -0.16152754
 -0.14888333 -0.22660913 -0.35012785 -0.24953735]
resnet_block_1/conv2d_4/kernel:0
(3, 3, 64, 64)
[[[[-0.0915371   0.12912427 -0.13510744 ... -0.00409391 -0.20363505
    -0.21530358]
   [ 0.04476945  0.01232054  0.03897395 ... -0.10305671 -0.125352
    -0.04243444]
   [ 0.04855666  0.07047746 -0.08651891 ...  0.20857373  0.08179064
    -0.00735207]
   ...
   [-0.16054766  0.11355551 -0.00908933 ...  0.18288375 -0.24222325
    -0.20791104]
   [ 0.02544305  0.09925464 -0.01201353 ...  0.20598152 -0.1534066
    -0.1418328 ]
   [-0.21148254 -0.01124904 -0.11690515 ...  0.13804051 -0.0083497
    -0.07662687]]

  [[ 0.13438834  0.02917607 -0.12731256 ... -0.10555889 -0.30562443
    -0.1754047 ]
   [ 0.10503771 -0.07408658 -0.07993827 ... -0.02479154 -0.17504361
    -0.23446806]
   [ 0.04049891  0.1514078  -0.16054192 ...  0.17836967 -0.2705854
    -0.00823233]
   ...
   [ 0.11207093 -0.02517686 -0.04534166 ...  0.06859928 -0.24995244
    -0.19353916]
   [ 0.03499617 -0.06607558  0.0510299  ...  0.13876832 -0.1129062
    -0.16561799]
   [-0.06783354 -0.11155898 -0.30391312 ...  0.04903858 -0.11872219
    -0.04258957]]

  [[ 0.24087611  0.16751012 -0.11432946 ... -0.07870554 -0.16310205
    -0.01280847]
   [-0.02329369 -0.0108856  -0.2800504  ...  0.13482836 -0.20816039
    -0.32550868]
   [ 0.1410265   0.1144881  -0.00175583 ...  0.11878705 -0.18936427
     0.07153396]
   ...
   [ 0.3473805   0.02044437 -0.1977582  ...  0.03386909 -0.22770815
    -0.34161153]
   [-0.05278232 -0.16017738 -0.16759464 ...  0.13540655 -0.17182046
    -0.19832005]
   [-0.04811987 -0.00955069 -0.19272989 ... -0.02430059 -0.27580544
    -0.0470021 ]]]


 [[[-0.07432533  0.14834282 -0.15482354 ...  0.12389171 -0.27099964
    -0.05402454]
   [ 0.03685095 -0.00968031 -0.0601583  ... -0.25375208 -0.03606803
     0.07640812]
   [ 0.03150627  0.09496573 -0.2636268  ... -0.0519171  -0.13962781
    -0.27767426]
   ...
   [-0.10871138  0.0158218  -0.10730655 ...  0.03752403 -0.32374096
     0.00044324]
   [ 0.19248958  0.06145448 -0.10294012 ...  0.02881872 -0.08961149
     0.02667556]
   [-0.1347747  -0.07748382 -0.13179235 ... -0.00205965  0.1271714
     0.04623491]]

  [[ 0.01109348  0.11669157 -0.17430837 ...  0.15323763 -0.07177245
     0.14028895]
   [ 0.05045919 -0.1562965   0.00465747 ... -0.1263234   0.13137922
     0.16357289]
   [-0.0323781   0.10736024 -0.01718465 ... -0.03397435 -0.19504276
    -0.22141492]
   ...
   [ 0.13076109  0.0591372  -0.280414   ...  0.09690408 -0.12346996
    -0.04278944]
   [ 0.05521295  0.0038121  -0.06675822 ...  0.03525763  0.06257689
     0.05092101]
   [-0.09262246 -0.00977896 -0.06559429 ... -0.05067203 -0.12163242
    -0.01713023]]

  [[ 0.07950915  0.01897153 -0.12018232 ...  0.01479942 -0.09712233
     0.01375828]
   [ 0.04669078  0.03368638 -0.02024104 ...  0.10009697  0.15887032
    -0.06682144]
   [-0.11431402  0.01916075  0.08207028 ...  0.04988365  0.08447479
    -0.00791748]
   ...
   [ 0.278127    0.00508769 -0.0754019  ...  0.12272778 -0.10446493
    -0.097868  ]
   [ 0.06751509 -0.22235352 -0.06984132 ... -0.02153281 -0.06082535
     0.01162884]
   [-0.14880422  0.0139921   0.0480714  ... -0.03504804 -0.1578563
     0.07943203]]]


 [[[-0.05872567  0.03065978 -0.14419654 ...  0.02044951 -0.0947018
     0.08415096]
   [-0.23888499  0.03026877  0.18465665 ... -0.11245872 -0.03791834
     0.01269125]
   [ 0.04708417  0.05978333 -0.13397597 ...  0.02559759 -0.22468494
     0.09090859]
   ...
   [-0.139573    0.19375215 -0.16603561 ...  0.1929946   0.08870923
    -0.07796715]
   [-0.00768857  0.03534793 -0.04878632 ... -0.09938491  0.10228201
     0.01599538]
   [ 0.15968059 -0.02907798 -0.04605228 ...  0.02723846  0.13996202
     0.04227704]]

  [[-0.0448809   0.05633396  0.05590601 ... -0.00761256  0.16957542
     0.12010887]
   [-0.04612105  0.12715502  0.05650535 ... -0.30067998  0.08579601
     0.03871184]
   [ 0.09835535  0.12071921 -0.07092736 ... -0.00763688 -0.00895196
     0.11790376]
   ...
   [ 0.00849473 -0.01572929 -0.1384926  ...  0.03248579  0.06741305
     0.03156241]
   [ 0.11102115  0.06793927  0.05746134 ... -0.02169467  0.05358301
     0.18571481]
   [-0.02845638 -0.0968523  -0.04377703 ...  0.01560075 -0.06558
     0.09960749]]

  [[-0.11755952 -0.09253177  0.06614178 ... -0.03733097  0.16950856
     0.02031424]
   [ 0.15681823 -0.03954713  0.02620063 ... -0.06051966  0.15615597
     0.05989777]
   [-0.10470468  0.11121292  0.0629579  ...  0.04172461  0.16519111
     0.07219998]
   ...
   [-0.09233422 -0.09860853  0.03186653 ...  0.00763927  0.15247819
    -0.01726317]
   [ 0.17573772  0.00850029  0.02636022 ...  0.09409022  0.04030021
     0.17996506]
   [-0.30243134 -0.12114678 -0.1742015  ...  0.17651395  0.02055297
     0.0474006 ]]]]
resnet_block_1/batch_normalization_4/gamma:0
(64,)
[0.978554   0.95031863 0.7947116  0.9739057  1.1009581  0.94188887
 1.0464746  0.85169494 1.0712789  1.0583388  0.82744044 0.8682372
 0.7869986  1.0966215  0.89331996 1.0193536  0.9545973  0.8239724
 0.79908365 0.80468917 1.0117779  0.9974612  1.064966   1.0084718
 1.0805064  1.0076423  0.88817126 1.0257732  1.0003054  0.68385285
 1.2656908  1.0142392  0.874407   0.76278716 0.94049597 1.1228163
 1.00111    1.0733894  0.9897921  0.9563688  1.0092632  0.8189067
 0.79307234 0.7878401  1.1367191  1.0383847  1.0673974  0.99782324
 1.1276184  0.8875339  0.7043588  0.86162573 0.97057235 0.7695513
 1.0411309  0.96482474 0.9750321  0.8408761  0.91238344 0.9207064
 1.0857513  0.7150215  0.96958435 1.0664946 ]
resnet_block_1/batch_normalization_4/beta:0
(64,)
[-0.27064198 -0.2883594  -0.19182017 -0.08697186  0.07653434 -0.14485656
 -0.14304438 -0.15568002 -0.12383404 -0.29252055 -0.12622128 -0.14367281
 -0.22170246 -0.22285497 -0.14214726 -0.14632635 -0.13033433 -0.0542907
 -0.14567158 -0.19247305 -0.2729035  -0.38069648 -0.2114616  -0.14210284
 -0.16110831  0.06858307 -0.20282595 -0.3090248  -0.2170361  -0.15240881
 -0.14999534 -0.3587361  -0.4220884  -0.11916484 -0.2867848  -0.28093943
 -0.10368828  0.02667337 -0.34867898 -0.22737998 -0.03412519 -0.2222497
 -0.2536908  -0.1705968  -0.01317279 -0.29099706 -0.09778624 -0.2583351
 -0.1726062  -0.28048512 -0.0423532  -0.27169397 -0.20943682 -0.13266997
 -0.32154816 -0.24331948 -0.274103   -0.18803321  0.00786477 -0.05885768
 -0.11574987 -0.36671084 -0.0382839   0.01209545]
resnet_block_2/conv2d_5/kernel:0
(3, 3, 64, 128)
[[[[-7.28129316e-03  3.04330532e-02 -3.31485569e-02 ... -2.02864170e-01
    -9.80485752e-02  7.65498634e-03]
   [ 5.56922480e-02 -1.76503345e-01 -8.16533417e-02 ... -2.60589510e-01
     1.74021982e-02  7.84169361e-02]
   [-5.48542105e-03 -8.33882615e-02 -1.23765856e-01 ...  4.61869650e-02
     1.26357421e-01 -1.28216237e-01]
   ...
   [ 9.00185928e-02  1.49418116e-01 -7.58389309e-02 ... -3.25751379e-02
     8.06375071e-02 -5.34152761e-02]
   [-1.09609477e-01 -1.89665444e-02  6.72515631e-02 ... -3.77680808e-02
     2.05486402e-01 -5.93368523e-02]
   [ 9.73926578e-03 -7.61804879e-02  1.04661413e-01 ... -1.88490767e-02
     8.16200152e-02 -1.06496543e-01]]

  [[-7.23482715e-03  3.50714810e-02 -7.57776350e-02 ... -1.44549966e-01
    -1.66280359e-01  1.32034734e-01]
   [-5.42526096e-02 -1.67433992e-01 -7.70343170e-02 ... -2.84806550e-01
    -6.07240796e-02  2.52328426e-01]
   [-1.09942675e-01 -1.43102869e-01 -5.18602766e-02 ... -1.44260764e-01
     9.88478865e-03 -5.12039624e-02]
   ...
   [ 1.57141507e-01  2.28379741e-02  7.82665163e-02 ...  5.53946272e-02
     7.93937817e-02  8.12730473e-03]
   [-2.08520368e-01 -1.47983089e-01 -2.08882093e-01 ... -2.36379310e-01
     1.53209582e-01 -7.36800060e-02]
   [ 5.51033393e-02 -1.54027373e-01  4.72724587e-02 ... -2.15834990e-01
     1.12816021e-01 -7.71910548e-02]]

  [[-9.89227220e-02 -7.38012344e-02 -1.16535418e-01 ... -2.84347553e-02
    -1.84695780e-01  7.13927597e-02]
   [-4.76147979e-02 -1.08036779e-01  5.76938689e-02 ... -1.53832063e-01
     8.85231271e-02  1.24439687e-01]
   [-9.94268572e-04 -3.82716656e-02 -1.41769439e-01 ... -1.50148138e-01
    -3.85832116e-02 -5.50127439e-02]
   ...
   [-9.25611630e-02 -5.01796119e-02  2.34808102e-02 ... -2.86920052e-02
    -1.37411179e-02 -3.84992361e-02]
   [-1.79309845e-01 -1.31433040e-01 -1.74289942e-01 ... -3.10693353e-01
     1.40869036e-01 -4.12065536e-02]
   [-8.93362015e-02 -9.68841016e-02  4.65384908e-02 ... -1.60164118e-01
     1.02447473e-01  9.39233676e-02]]]


 [[[ 4.63268459e-02  7.65738338e-02  8.61274078e-03 ... -7.54448101e-02
     1.62971839e-01 -2.29921162e-01]
   [-1.02580458e-01 -3.47525217e-02 -5.56852110e-02 ... -1.29592657e-01
     1.98470935e-01  5.99583192e-03]
   [ 5.83576038e-03  1.17707727e-02 -4.74864691e-02 ...  1.98110983e-01
     1.23065867e-01 -3.79949883e-02]
   ...
   [-2.64132209e-02  1.01154603e-01 -7.82126635e-02 ... -1.92029163e-01
     1.48677349e-01 -3.30197252e-02]
   [-2.80484021e-01 -9.25929695e-02  4.30116057e-02 ...  1.59977198e-01
     5.24565130e-02  8.44107196e-02]
   [-2.38801524e-01 -3.08164919e-04 -1.95130944e-01 ...  1.30518183e-01
    -7.22396225e-02 -8.41065869e-02]]

  [[-1.50182052e-02 -1.64181516e-01  2.92998645e-02 ... -1.07798599e-01
    -2.54205409e-02 -2.39098653e-01]
   [-1.23773783e-01 -1.76326990e-01  2.57323742e-01 ...  3.73174362e-02
     1.54736951e-01 -1.74268663e-01]
   [-8.78362879e-02 -9.98495892e-02  1.53847665e-01 ...  3.97832580e-02
     2.74320319e-02 -6.54993504e-02]
   ...
   [-1.30657910e-03  1.54362753e-01 -2.97904573e-02 ... -1.49273314e-02
     1.06250130e-01 -1.30222172e-01]
   [-2.76014537e-01 -1.83144480e-01 -1.66403092e-02 ... -6.15281239e-03
     2.07845923e-02 -2.08946585e-05]
   [-3.04421663e-01 -5.31935580e-02 -1.70451269e-01 ...  3.36332545e-02
    -6.59284443e-02 -1.98824331e-01]]

  [[-1.21684089e-01 -8.65589753e-02 -7.29664192e-02 ... -1.36278793e-01
    -7.95694739e-02 -1.91978037e-01]
   [-7.18677044e-02 -7.36931190e-02  1.49646178e-02 ...  8.08200091e-02
     1.37249023e-01 -2.23743454e-01]
   [ 2.88131982e-02  8.83176848e-02 -6.73209652e-02 ...  2.36572325e-01
    -1.81277543e-02 -2.43718494e-02]
   ...
   [ 6.74232841e-04  1.34642348e-01 -1.82626680e-01 ... -1.46150306e-01
     8.68175030e-02  5.67421922e-03]
   [-2.36523852e-01 -5.79830855e-02  1.61002129e-01 ...  1.26746982e-01
     2.88744681e-02  1.39223143e-01]
   [-1.45986065e-01  8.84022564e-03 -1.17948160e-01 ... -1.20446429e-01
     1.58023182e-02  7.87717104e-02]]]


 [[[ 6.15903176e-02  8.50263704e-03  9.57408473e-02 ...  8.74873847e-02
     2.00986788e-01 -8.84678885e-02]
   [-1.33109212e-01  4.10429686e-02  1.76466390e-01 ...  2.18463555e-01
     1.05486192e-01 -7.79073089e-02]
   [ 7.65732899e-02  1.68106958e-01  1.53562605e-01 ...  1.43293262e-01
    -2.04888731e-02 -2.43633054e-02]
   ...
   [ 5.94766699e-02  6.18341751e-02 -8.90812427e-02 ...  7.22555220e-02
     4.19971757e-02 -1.69965953e-01]
   [-8.85556340e-02  5.23284189e-02  3.28322239e-02 ...  8.65603238e-02
    -1.48620456e-01 -1.01067826e-01]
   [ 1.28672138e-01  1.87546268e-01  5.26546799e-02 ...  9.94220376e-02
    -5.56800095e-03  2.22852882e-02]]

  [[-1.10011414e-01 -2.00477019e-01 -1.44739881e-01 ...  9.85342041e-02
    -1.17626131e-01 -2.98497438e-01]
   [-2.06713721e-01 -1.08052291e-01  9.87624303e-02 ...  2.09043488e-01
    -7.30115548e-02 -1.39855802e-01]
   [ 2.58168392e-02  2.76695900e-02  1.43080056e-01 ... -4.64009568e-02
    -1.04833327e-01  8.82046670e-02]
   ...
   [ 6.88361749e-02  7.19028562e-02  7.82725494e-03 ...  1.44948334e-01
     4.58794869e-02 -1.00549415e-01]
   [-2.47315630e-01 -4.11453918e-02  1.61847651e-01 ...  1.17909387e-01
    -1.29104778e-01 -3.45395431e-02]
   [-9.89248008e-02  1.37766644e-01  1.90871969e-01 ...  2.37414449e-01
    -9.27923396e-02  1.94733944e-02]]

  [[-3.03089879e-02 -1.38920292e-01 -1.75776318e-01 ... -1.35787517e-01
    -3.36570032e-02 -3.15616041e-01]
   [-2.78941780e-01 -1.13245249e-01 -1.73085019e-01 ...  9.73828956e-02
    -1.77709591e-02 -1.67950109e-01]
   [ 6.35266528e-02 -3.66084091e-02 -1.06086500e-01 ...  4.39404771e-02
    -2.77593434e-02 -4.73223021e-03]
   ...
   [ 3.81947607e-02  8.92526209e-02  5.87573834e-02 ... -5.36796674e-02
     3.32517810e-02 -1.38357416e-01]
   [-1.35984898e-01 -1.91734910e-01  1.36956945e-01 ...  7.61062801e-02
    -8.40101466e-02  1.24878213e-02]
   [-4.76755276e-02 -8.62716511e-02  1.23704396e-01 ...  2.51358300e-01
    -8.79769474e-02  6.09051101e-02]]]]
resnet_block_2/batch_normalization_5/gamma:0
(128,)
[0.98967755 0.87596625 0.9937433  0.9843134  1.2104822  1.2533855
 0.99595827 0.70475113 1.0886798  1.0071537  1.0432113  1.0020268
 1.0468684  1.060262   1.0380728  1.0070777  0.88537896 0.8931431
 0.97082376 0.9376288  0.9810192  0.8680042  0.93661404 1.0791926
 0.9004492  0.91156226 1.0923306  0.89681256 0.87050474 0.94583124
 1.2255869  0.98211163 0.83860403 1.0265309  1.0178113  1.125879
 0.9665024  1.0259489  1.0061784  1.0758979  0.9240731  0.8161838
 1.0948514  0.8214775  1.0058954  1.2738421  1.0983286  1.0227395
 0.8104548  0.7332473  0.99374247 1.0796913  0.7962401  1.0189489
 0.81333846 0.9456446  1.1426841  0.838587   0.9886626  0.9240216
 1.0004729  0.9372852  0.85143965 1.009202   1.1029357  0.9497217
 0.9245488  0.7933624  0.7249709  1.1213785  0.7973705  0.9637625
 0.7518303  1.0646367  0.9341314  1.0592132  1.1565185  0.8162535
 1.047772   1.0668052  1.038879   0.7992859  0.9781751  1.0153865
 0.86546415 0.92151475 1.1383126  1.0771781  1.154463   1.0737101
 0.8343727  1.0836205  0.9515492  1.1407007  1.0041149  1.0697021
 0.8715579  1.0623384  1.0894316  1.1022614  0.9767814  0.92011595
 1.0487545  0.94975007 0.7249639  1.1998847  0.93891037 0.96997416
 1.2285514  0.84031993 0.95050865 0.8562237  0.93925625 1.1225033
 0.8739231  1.0378189  0.87245196 1.0379571  0.91615754 0.80380106
 0.8160174  0.77554625 1.1326208  0.9214942  1.0420072  0.8854682
 0.8425095  0.76570183]
resnet_block_2/batch_normalization_5/beta:0
(128,)
[-0.19355644 -0.26833776 -0.2671495  -0.23892005 -0.2888626  -0.29375055
 -0.19333643 -0.32537627 -0.11173965 -0.16973905 -0.1747688  -0.20151992
 -0.2635303  -0.1694678  -0.28405195 -0.28588465 -0.4249685  -0.09278417
 -0.2951468  -0.07540539 -0.04951012 -0.28414324 -0.2729485  -0.20512189
 -0.20867184 -0.3217367  -0.13670419 -0.19866304 -0.21923003 -0.10124663
 -0.3598188  -0.28217313 -0.2865988  -0.25946146 -0.19166885 -0.28810802
 -0.08819198 -0.18254374 -0.20834684 -0.14910507 -0.22885293 -0.25052792
 -0.06156883 -0.28459567 -0.12474811 -0.18950585 -0.20743825 -0.22394647
 -0.30370164 -0.3034178  -0.4217039  -0.19155553 -0.2777499  -0.06473184
 -0.23820035 -0.40764046 -0.32633376 -0.21410738 -0.15427424 -0.38959497
 -0.34492326 -0.256469   -0.17564657 -0.20469356 -0.21519409 -0.31525886
 -0.23990944 -0.35640845 -0.17741264 -0.2605242  -0.2893345  -0.25855097
 -0.35870624 -0.03425208 -0.3539808  -0.15473558 -0.25018397 -0.20658351
 -0.20736745 -0.14783007 -0.1644768  -0.32724062 -0.23260236 -0.16585056
 -0.38496915 -0.23263055 -0.2028998  -0.07814202 -0.19520213 -0.2552363
 -0.27306616 -0.17953949 -0.25694102 -0.14359789 -0.21564662 -0.08681517
 -0.33589628 -0.15971039 -0.06361996 -0.21801054 -0.2136027  -0.22577482
 -0.32193896 -0.3591077  -0.277476   -0.04938801 -0.11525147 -0.26150858
 -0.27212664 -0.2858812  -0.11345155 -0.28348967 -0.25356916 -0.38728067
 -0.18146838 -0.3094681  -0.23208264 -0.19266672 -0.27049857 -0.32809392
 -0.16466013 -0.43832615 -0.21992193 -0.17343473 -0.11969473 -0.27575833
 -0.11278114 -0.36699775]
resnet_block_2/conv2d_6/kernel:0
(3, 3, 128, 128)
[[[[-3.13834809e-02 -1.64353661e-02 -2.84770697e-01 ... -1.71505123e-01
    -1.49055645e-02 -1.20346971e-01]
   [ 1.26631722e-01  9.55292210e-02 -1.88772827e-01 ...  3.12932208e-02
     1.05403354e-02  3.40882689e-02]
   [ 6.44754097e-02  2.97688786e-02  1.31221026e-01 ...  1.07663892e-01
    -1.45532727e-01  7.68068805e-02]
   ...
   [ 9.74046588e-02 -2.16158181e-02 -4.34429664e-03 ...  1.32342083e-02
     2.15166360e-02  1.45903245e-01]
   [-1.11579724e-01  1.87304333e-01 -2.46616174e-02 ...  7.31993690e-02
    -9.32370871e-03 -7.82108754e-02]
   [ 6.24768473e-02 -8.52485150e-02  1.21180080e-01 ...  1.03189819e-01
     1.65699446e-03  1.72516346e-01]]

  [[-1.30634129e-01 -1.27824232e-01 -1.60511777e-01 ... -9.12599359e-03
    -1.77583516e-01  3.22665423e-02]
   [-1.14349745e-01  5.28916018e-03 -1.11563630e-01 ... -2.34110132e-02
    -7.00356439e-02  8.73850472e-03]
   [ 1.01062566e-01 -7.73962885e-02  1.10033207e-01 ... -5.33904806e-02
    -1.73196737e-02  1.77140340e-01]
   ...
   [-1.88187193e-02 -5.96404402e-03  1.97888732e-01 ... -9.83862504e-02
    -1.73163861e-01  5.70792146e-02]
   [-7.03928471e-02 -1.29666045e-01  1.99202565e-03 ...  3.88156511e-02
     4.60936464e-02  1.55857122e-02]
   [ 2.05431461e-01  1.06563017e-01 -1.04539089e-01 ... -1.58365250e-01
    -1.08192852e-02  9.49156284e-02]]

  [[-3.58135365e-02 -4.03743684e-02  1.24849267e-01 ...  9.13430080e-02
    -1.57893181e-01 -7.17117339e-02]
   [-1.24608524e-01  9.79802534e-02  2.17048191e-02 ...  3.62218320e-02
    -1.19252399e-01 -9.33349282e-02]
   [-3.61048020e-02 -1.89545810e-01 -1.24277465e-01 ... -1.09681152e-01
    -1.91135600e-01 -6.61023036e-02]
   ...
   [-2.48095598e-02 -1.74145922e-01 -1.27573296e-01 ... -3.45914066e-01
    -9.51519981e-02  1.84947103e-02]
   [-1.52905732e-02 -2.75752451e-02 -1.10488445e-01 ...  1.81557313e-01
     6.12618290e-02  8.40527192e-03]
   [ 3.82847115e-02  1.84481815e-01  8.39980468e-02 ... -2.80424625e-01
     7.53058642e-02 -3.57652307e-02]]]


 [[[-5.76539412e-02 -7.80124888e-02 -4.37449180e-02 ...  1.05381742e-01
    -1.08427461e-02  1.06486775e-01]
   [-3.53792123e-02  2.76824692e-03 -1.35885226e-02 ... -1.13911018e-01
    -8.51725712e-02 -5.33827133e-02]
   [ 1.59846261e-01 -7.48152658e-02  1.01745985e-01 ... -1.75918519e-01
    -1.67455710e-02  7.36401156e-02]
   ...
   [-3.07827052e-02 -3.70356999e-02  3.10764965e-02 ... -2.82838285e-01
     1.13660544e-01 -5.75547712e-03]
   [ 1.34209218e-02  1.91368479e-02  9.25077125e-02 ...  3.32231261e-02
    -2.91808713e-02 -8.17980245e-02]
   [ 1.06860161e-01  3.36512215e-02 -1.04608044e-01 ...  2.08260380e-02
     9.91605148e-02  8.56380537e-02]]

  [[-2.69030146e-02  3.26970629e-02  1.72085240e-01 ...  9.64027345e-02
     1.49867505e-01  1.00992069e-01]
   [-2.55961642e-02 -1.33164572e-02  1.11227117e-01 ...  1.97725650e-02
    -1.89831853e-02  9.19138640e-03]
   [ 9.96755362e-02 -4.62098196e-02 -3.26473787e-02 ... -8.79694745e-02
     8.21905360e-02 -5.65594845e-02]
   ...
   [ 4.60501807e-03 -8.38002190e-02 -1.09705120e-01 ... -7.03165308e-02
     1.10839866e-01 -4.27439697e-02]
   [-1.14671148e-01  8.66172928e-03  7.52323249e-04 ...  1.98140927e-02
    -3.07021793e-02  7.18679577e-02]
   [ 2.37304762e-01 -4.77021225e-02  3.74089070e-02 ... -1.59086630e-01
     4.51480933e-02  1.04800075e-01]]

  [[ 2.06305906e-01 -7.19227269e-02 -6.79411367e-03 ...  1.16454974e-01
     2.29181841e-01 -9.99337062e-02]
   [ 3.19046304e-02 -5.58800399e-02  7.64762163e-02 ...  1.21847957e-01
     5.14260605e-02 -1.01898566e-01]
   [ 5.15630729e-02 -1.52143359e-01 -1.38812110e-01 ... -4.28043269e-02
     5.27193882e-02  9.18459296e-02]
   ...
   [-1.47760957e-01 -5.23925275e-02 -1.82634369e-01 ...  8.93916655e-03
    -7.58992210e-02  1.30316898e-01]
   [-5.02426177e-02 -7.63938054e-02  7.81495944e-02 ...  9.52691734e-02
     3.03901490e-02 -1.09865732e-01]
   [ 1.06853083e-01  4.11243625e-02 -1.14711225e-01 ... -6.43912330e-02
     2.93672644e-03  8.35037827e-02]]]


 [[[-1.09706186e-01  8.04140493e-02 -2.76401918e-02 ...  8.27383474e-02
     9.40272138e-02 -2.31677383e-01]
   [-1.88156106e-02 -1.27805650e-01  2.54521519e-01 ...  4.78655957e-02
     1.87440768e-01 -1.62775934e-01]
   [-2.58328300e-02 -4.33371812e-02 -1.01140246e-01 ... -4.66158055e-02
    -1.85332331e-03  2.91530956e-02]
   ...
   [-5.51397577e-02 -1.41977668e-02 -1.61769211e-01 ... -1.06913246e-01
    -1.26483634e-01  6.28968403e-02]
   [ 1.32393181e-01 -6.84229434e-02 -2.00639386e-02 ... -1.06748931e-01
     7.37719536e-02 -1.63476188e-02]
   [-1.32989302e-01  1.27053812e-01  8.18598866e-02 ... -1.17533199e-01
     4.88692969e-02 -1.74530163e-01]]

  [[-1.27879277e-01  8.12032670e-02  1.66947022e-03 ... -3.64055075e-02
     1.23471156e-01 -9.13239717e-02]
   [ 9.53672677e-02 -4.85276990e-02  3.13923836e-01 ...  8.23509097e-02
    -3.52470130e-02  7.73090050e-02]
   [-6.13591447e-02  2.73929805e-01 -7.61282444e-02 ... -4.27036583e-02
    -1.57660574e-01 -1.71976358e-01]
   ...
   [-1.23622036e-02  1.49786949e-01  4.56754752e-02 ... -3.93479988e-02
    -1.89885497e-01 -1.79762766e-01]
   [ 1.95258856e-02  1.38329649e-02 -1.25662442e-02 ... -2.09692400e-02
     2.42246725e-02  2.11204484e-01]
   [-3.35496068e-02  6.82546720e-02 -3.09525788e-01 ... -1.31856829e-01
     2.67980266e-02 -9.77268443e-02]]

  [[-1.85579538e-01  3.69844995e-02  8.35547969e-02 ... -8.55476186e-02
     4.68849875e-02 -1.43135816e-01]
   [-6.43020943e-02 -4.91065271e-02  1.00107670e-01 ...  1.34868875e-01
    -2.86366232e-02  1.66078607e-04]
   [-1.53604999e-01  2.55804062e-01 -2.48560429e-01 ...  4.78795953e-02
    -8.95162076e-02 -6.21333271e-02]
   ...
   [ 2.32232828e-02  1.12373561e-01 -5.55383898e-02 ...  6.82350397e-02
     9.46687236e-02 -1.84868369e-02]
   [-2.59810627e-01  4.93150167e-02 -1.21185258e-01 ...  4.83789034e-02
     7.14479685e-02  7.41546080e-02]
   [-6.94346204e-02  3.03841561e-01 -3.13496552e-02 ... -2.81236410e-01
    -6.85046092e-02  6.75746500e-02]]]]
resnet_block_2/batch_normalization_6/gamma:0
(128,)
[1.0875955  1.1397448  0.85086405 1.0574728  1.0920103  0.92022437
 0.903303   1.0985434  1.0005231  0.9943376  1.0367359  1.0370569
 1.0527794  1.0837684  1.0867541  1.061036   0.97559345 1.005155
 0.9424158  1.222108   0.98105025 0.9461017  1.0752484  1.1188937
 1.1033454  0.9471376  1.0565466  1.1648915  0.806453   1.0705721
 0.8759853  0.9847497  0.98695177 1.0298524  0.9771601  0.9170235
 0.9513788  1.0395614  0.98402566 1.0141157  1.0322179  0.98639673
 0.90582544 1.0199594  1.0471418  0.9144449  0.8919392  1.1611106
 1.0212518  1.0758587  1.0083184  1.1265815  0.9767221  0.9440668
 0.8794852  0.94920784 0.8352075  1.0526959  0.8325188  0.98032534
 1.0541066  1.1154456  1.0724021  0.87583345 1.046725   1.0077946
 1.0479509  0.9473779  1.0403688  0.88999224 1.0831096  0.9187589
 1.0238005  1.0310845  1.0308013  1.0125744  1.0021123  0.82587844
 1.0031607  1.028285   0.87356657 0.9474274  0.9828803  1.0746241
 0.95028013 1.0344491  1.0130298  0.9033977  1.0617279  1.0650853
 0.93638855 0.9358503  0.95579934 1.1537986  0.8519169  0.9215675
 0.8984322  1.1813027  1.2519494  1.1152003  1.1076354  0.96019113
 0.9186396  0.79374444 0.99442697 1.0172129  1.0569087  0.9974517
 1.0446635  0.91208625 1.0842725  0.92057794 1.0655447  0.89551765
 1.0101597  0.9189515  0.8952589  0.9744876  0.824962   0.94419134
 0.8656471  1.0384612  0.98200667 1.100569   1.099618   1.0760562
 1.0497082  1.0421873 ]
resnet_block_2/batch_normalization_6/beta:0
(128,)
[-0.28227258 -0.36651218 -0.21604483 -0.1852034  -0.12709919 -0.34836593
 -0.28520006 -0.21148814 -0.29388762 -0.34695086 -0.22190952 -0.28096628
 -0.1834494  -0.20555001 -0.1484201  -0.24003665 -0.1993266  -0.3103991
 -0.37924123 -0.06343012 -0.18973856 -0.23940048 -0.14224353 -0.23732404
 -0.2580443  -0.32807797 -0.25969896 -0.25635624 -0.31687286 -0.31076437
 -0.22531374 -0.2265177  -0.27094078 -0.19189075 -0.2826544  -0.43738705
 -0.29255033 -0.13186742 -0.3578288  -0.21153867 -0.28972664 -0.27930984
 -0.34994954 -0.14844295 -0.11385899 -0.17205769 -0.26473168 -0.18272027
 -0.17147462 -0.15458828 -0.17733209 -0.24847127 -0.21246602 -0.17460388
 -0.27316412 -0.34286037 -0.30221    -0.16493568 -0.22997051 -0.25961432
 -0.03600869 -0.14211218 -0.1330558  -0.28042978 -0.2656301  -0.307471
 -0.3106936  -0.24358498 -0.07533467 -0.3347486  -0.25593942 -0.23661207
 -0.17779653 -0.23946504 -0.22513369 -0.25879055 -0.17087333 -0.30692276
 -0.24914116 -0.3238055  -0.26314414 -0.32358524 -0.24128336 -0.34419534
 -0.27914226 -0.25239316 -0.18417014 -0.33437583 -0.2214963  -0.10394756
 -0.2705386  -0.15965495 -0.13878994 -0.19116014 -0.28674486 -0.17216378
 -0.27320126 -0.17957631 -0.2005989  -0.24487405 -0.22722556 -0.2262795
 -0.2819132  -0.35946816 -0.23572695 -0.20733872 -0.17014599 -0.3260407
 -0.28076518 -0.24472973 -0.22780393 -0.32330593 -0.18723701 -0.33838958
 -0.23928063 -0.19259119 -0.2558783  -0.34385276 -0.25941905 -0.3334372
 -0.22361778 -0.26819292 -0.25660262 -0.24089013 -0.19824624 -0.2225265
 -0.32303658 -0.11861005]
resnet_block_2/conv2d_7/kernel:0
(1, 1, 64, 128)
[[[[-0.24064296 -0.11669905  0.04930032 ...  0.16175689  0.08348775
     0.02372491]
   [ 0.11237056  0.26577017 -0.00751121 ...  0.10182513  0.07095373
    -0.14645483]
   [ 0.01909718 -0.05646757  0.00243295 ... -0.09507398  0.05317783
    -0.06043778]
   ...
   [ 0.06373148 -0.04625738  0.22019188 ...  0.06890523 -0.0197705
     0.14170337]
   [ 0.119649   -0.01558559  0.3538488  ...  0.20123231 -0.14508173
     0.01498837]
   [-0.07469625  0.05027755 -0.16945264 ...  0.07285139 -0.38690075
     0.21803716]]]]
resnet_block_2/batch_normalization_7/gamma:0
(128,)
[0.9158505  0.88991517 1.0302796  1.1364708  1.2091944  0.6948604
 0.9246155  1.0049285  1.0041311  0.79787046 0.86845845 1.0563905
 1.0130812  0.88803786 0.9452981  1.0056055  1.1756486  1.0407012
 0.9740712  0.9774181  1.2413073  0.96233135 1.0766802  0.993793
 1.119282   1.0341315  0.9269703  1.2426392  0.89237374 1.0291879
 1.0827662  1.0513977  0.9902919  0.97900987 0.98967594 0.90290385
 1.0747517  0.9759482  1.0228089  1.0326079  1.1532053  1.0093946
 0.8257311  1.078185   0.9618592  1.0376219  1.0941675  1.0550355
 1.0988832  1.0676186  0.9984368  1.0239714  1.0211618  0.92505133
 1.0302314  0.95583266 1.106804   0.994717   0.94254065 1.042962
 1.2232038  1.02081    0.9487178  1.0612466  0.85946876 0.72827685
 1.2206128  0.9560096  1.0671388  0.86713725 1.0348012  0.8631438
 1.009745   0.9087969  1.0917987  1.0172989  1.12981    0.9831718
 1.026903   1.0124058  0.91860044 0.9957497  1.0435476  1.0338043
 1.1408165  1.022578   1.067191   0.9588786  1.1085329  1.0141168
 0.8995952  0.86625636 1.0532604  0.98744446 0.9840752  1.0500702
 1.1606237  1.0020694  1.3192649  0.8528315  1.2726525  0.9767351
 0.95653105 0.963685   1.0370493  0.85362935 1.0037762  0.9787415
 0.92422104 1.0359544  0.8872695  0.94600743 0.94157684 0.78816915
 0.9361799  1.0227429  1.017229   0.9339193  1.0154383  0.96532595
 1.1148647  1.2073292  0.94729424 1.1902767  1.0815815  1.0213982
 1.083666   1.0778676 ]
resnet_block_2/batch_normalization_7/beta:0
(128,)
[-0.28227258 -0.36651218 -0.21604483 -0.1852034  -0.12709919 -0.34836593
 -0.28520006 -0.21148814 -0.29388762 -0.34695086 -0.22190952 -0.28096628
 -0.1834494  -0.20555001 -0.1484201  -0.24003665 -0.1993266  -0.3103991
 -0.37924123 -0.06343012 -0.18973856 -0.23940048 -0.14224353 -0.23732404
 -0.2580443  -0.32807797 -0.25969896 -0.25635624 -0.31687286 -0.31076437
 -0.22531374 -0.2265177  -0.27094078 -0.19189075 -0.2826544  -0.43738705
 -0.29255033 -0.13186742 -0.3578288  -0.21153867 -0.28972664 -0.27930984
 -0.34994954 -0.14844295 -0.11385899 -0.17205769 -0.26473168 -0.18272027
 -0.17147462 -0.15458828 -0.17733209 -0.24847127 -0.21246602 -0.17460388
 -0.27316412 -0.34286037 -0.30221    -0.16493568 -0.22997051 -0.25961432
 -0.03600869 -0.14211218 -0.1330558  -0.28042978 -0.2656301  -0.307471
 -0.3106936  -0.24358498 -0.07533467 -0.3347486  -0.25593942 -0.23661207
 -0.17779653 -0.23946504 -0.22513369 -0.25879055 -0.17087333 -0.30692276
 -0.24914116 -0.3238055  -0.26314414 -0.32358524 -0.24128336 -0.34419534
 -0.27914226 -0.25239316 -0.18417014 -0.33437583 -0.2214963  -0.10394756
 -0.2705386  -0.15965495 -0.13878994 -0.19116014 -0.28674486 -0.17216378
 -0.27320126 -0.17957631 -0.2005989  -0.24487405 -0.22722556 -0.2262795
 -0.2819132  -0.35946816 -0.23572695 -0.20733872 -0.17014599 -0.3260407
 -0.28076518 -0.24472973 -0.22780393 -0.32330593 -0.18723701 -0.33838958
 -0.23928063 -0.19259119 -0.2558783  -0.34385276 -0.25941905 -0.3334372
 -0.22361778 -0.26819292 -0.25660262 -0.24089013 -0.19824624 -0.2225265
 -0.32303658 -0.11861005]
resnet_block_3/conv2d_8/kernel:0
(3, 3, 128, 128)
[[[[-0.15105185 -0.02196652  0.08510353 ... -0.06775416 -0.00799238
     0.0898117 ]
   [-0.02364589 -0.0314454   0.11778172 ...  0.08828168  0.04691793
    -0.01935152]
   [-0.0056019  -0.31504136  0.0958631  ... -0.06807998 -0.11777619
     0.06324943]
   ...
   [-0.0938671   0.01562118  0.10317171 ... -0.02689308  0.13011694
    -0.0090808 ]
   [-0.10465663 -0.18263093  0.02448091 ... -0.0430859   0.09500054
     0.18488908]
   [-0.05281519 -0.10852215  0.114423   ... -0.05619255  0.04052595
    -0.13971667]]

  [[-0.05091734 -0.02628201  0.11090265 ...  0.03333301  0.137415
     0.08613876]
   [-0.00783202 -0.20348017 -0.03235065 ...  0.02175885  0.12366445
    -0.01996574]
   [-0.06486824 -0.30217808  0.06934755 ...  0.0679969   0.04940925
     0.06596185]
   ...
   [-0.09095648 -0.05843826  0.05935765 ...  0.11063802  0.12844647
     0.09454912]
   [-0.02918905 -0.15281661  0.12738848 ...  0.10939142  0.0491818
     0.11130904]
   [-0.03699397  0.01243548  0.10119756 ... -0.11737656 -0.09772833
    -0.05472521]]

  [[ 0.0398771   0.01172413  0.2641307  ... -0.02720705  0.08722314
     0.01583347]
   [ 0.05867887  0.07210177 -0.10023377 ... -0.04525898  0.10036797
     0.13614798]
   [ 0.16425522 -0.17531976 -0.03536397 ...  0.06303767  0.00479569
    -0.10622884]
   ...
   [ 0.0463856  -0.17344297  0.04776208 ...  0.11966389  0.08347296
    -0.00549733]
   [-0.00837014  0.07499377  0.08683307 ... -0.01061539  0.06206782
     0.00641598]
   [-0.00868261 -0.03180988  0.1421706  ...  0.02251894 -0.09785743
     0.08394428]]]


 [[[-0.14370316  0.00853872 -0.19254601 ... -0.24103665 -0.07213444
     0.19079581]
   [-0.04158225 -0.05832787 -0.08775964 ... -0.05558303 -0.17948264
    -0.00764138]
   [-0.13994712 -0.0822302  -0.17584567 ... -0.09841873  0.03394172
     0.11750662]
   ...
   [-0.17512615 -0.05482452 -0.03692326 ... -0.03390018 -0.09067804
     0.06505194]
   [ 0.0774477  -0.17596892  0.01960028 ... -0.06694595  0.18058175
     0.12753263]
   [-0.01051299 -0.14125386 -0.01696959 ...  0.07253917 -0.15306988
     0.07282047]]

  [[ 0.08466275 -0.09449538 -0.11773019 ...  0.01653488 -0.02392965
     0.0548996 ]
   [ 0.00328474  0.02507656  0.15421368 ... -0.05454755  0.03071842
    -0.06744752]
   [-0.2617544   0.07566339 -0.17155842 ... -0.02461395  0.04675071
     0.17837593]
   ...
   [-0.10844322 -0.02387258  0.06075457 ... -0.22670554  0.07498495
    -0.03811108]
   [ 0.05124442 -0.05247665  0.01584991 ...  0.05827898  0.06762969
    -0.00797886]
   [ 0.11236831 -0.17068511 -0.05630542 ...  0.15502398 -0.18344721
     0.05239391]]

  [[ 0.01546984 -0.03725106 -0.11871409 ... -0.20861122 -0.04083455
     0.02105723]
   [-0.08728106  0.19311991  0.16703758 ...  0.00737004 -0.06220305
     0.06075805]
   [-0.05104806 -0.04364251 -0.23006716 ... -0.06752581 -0.08460303
    -0.06074002]
   ...
   [ 0.02027341 -0.05458801 -0.0038831  ... -0.26243603 -0.10379974
     0.04954405]
   [ 0.01083264 -0.05599408  0.05783361 ...  0.12415328  0.185269
     0.18277775]
   [ 0.12141152  0.0587121   0.05715858 ... -0.0699678  -0.11776431
    -0.04304028]]]


 [[[-0.16160648  0.01602352 -0.08956461 ... -0.12542441  0.03504161
    -0.02569783]
   [-0.01968923  0.04185521 -0.10378346 ...  0.10514051 -0.00165545
    -0.08711386]
   [-0.09366648  0.12034764 -0.04793754 ... -0.17997769  0.08311181
    -0.13023728]
   ...
   [ 0.20665531  0.00579878  0.11584328 ... -0.1780561  -0.15893406
    -0.04969248]
   [-0.07733459  0.02844355 -0.19715893 ...  0.05530599  0.06983004
    -0.11754581]
   [ 0.1528017  -0.09454361 -0.19929391 ...  0.11785318 -0.04587456
    -0.15198767]]

  [[-0.18680176 -0.09278275  0.00895397 ... -0.05009287  0.05536545
     0.01036537]
   [ 0.07205707 -0.08590361  0.03669668 ...  0.10086291  0.02636003
    -0.34112254]
   [ 0.1503149   0.15397866  0.13040969 ...  0.05801581  0.12138571
    -0.1738917 ]
   ...
   [ 0.10556365  0.07960375 -0.04611532 ...  0.05276888 -0.12662554
    -0.02163147]
   [ 0.08368743 -0.19055477  0.06356957 ...  0.06066914 -0.09348472
    -0.32400668]
   [-0.00762204  0.11597218  0.04178445 ...  0.05347335  0.01437707
    -0.23735604]]

  [[-0.14527792 -0.14011173  0.02484853 ...  0.05206807 -0.00208042
     0.04796433]
   [ 0.08317829 -0.07289041  0.14529434 ...  0.05136962 -0.01656717
    -0.12345384]
   [ 0.11292889  0.07892946  0.21174343 ...  0.0615837  -0.00913979
    -0.08663177]
   ...
   [ 0.16691153  0.05415156  0.17713358 ...  0.12102143 -0.1384482
    -0.22402476]
   [ 0.07270288 -0.08860265  0.18915088 ...  0.058966   -0.0695429
     0.07357432]
   [-0.06673754  0.01598078  0.2624533  ...  0.05195608  0.06117394
     0.0398622 ]]]]
resnet_block_3/batch_normalization_8/gamma:0
(128,)
[0.97688955 1.0055217  0.7426621  1.0752406  1.1071866  0.8201434
 0.7374833  0.8288607  0.8807985  0.9395419  0.95588684 0.9833971
 0.84304255 1.2147512  1.0425469  0.89945745 1.0163097  0.89885384
 1.0369599  1.1255373  0.87640977 1.0859604  1.0701545  0.82890075
 0.9055341  0.9123988  1.0811678  1.0993794  0.8370872  0.9997904
 0.9723689  0.90549237 0.9946703  0.76222414 0.8806792  1.0989357
 0.92118394 1.0704736  0.9179975  0.7892229  1.0813707  1.0805285
 1.073788   0.94732934 0.95914423 0.87729037 0.8351904  0.85095316
 0.886232   0.9977205  1.089123   0.91548115 1.0927693  1.142879
 1.0863957  1.267058   1.0640386  0.76981145 1.094635   0.76599574
 0.9250935  1.1918143  0.8307308  0.9866737  1.0578887  0.8715889
 0.8669858  1.039953   1.0387005  1.0236864  1.0302793  1.0090444
 1.0640159  0.94081765 0.90491426 1.0896282  0.95973164 1.0248908
 1.0847119  1.0739154  1.0434178  1.0970011  1.1127332  0.9466962
 0.9823936  0.97886956 0.91826683 0.8782377  1.0390409  1.0289831
 1.1165515  0.99012774 0.8990041  0.9749594  1.0817374  0.95178056
 0.77176434 1.009437   0.94959545 1.0214597  0.9416558  0.86920696
 0.7934206  0.9801714  0.9585763  0.80851406 0.95872426 1.1133811
 1.1965963  0.96616364 0.8781989  0.87938094 1.0060891  0.92656326
 0.79042065 0.8523576  0.9306938  0.873713   0.9416736  0.916006
 1.042522   0.8602359  0.96173555 1.1021575  0.9851335  0.78817964
 1.077128   1.1536558 ]
resnet_block_3/batch_normalization_8/beta:0
(128,)
[-0.32767826 -0.32971194 -0.33727536 -0.13799557 -0.30872053 -0.34085143
 -0.3768036  -0.3402059  -0.28919798 -0.28513196 -0.19729015 -0.43613777
 -0.25138864 -0.28859922 -0.35908175 -0.4385275  -0.31857926 -0.35079092
 -0.2524996  -0.17575239 -0.34447455  0.00299312 -0.25272393 -0.33607757
 -0.38819212 -0.1046401  -0.29953355 -0.23904386 -0.32468757 -0.43085098
 -0.19656563 -0.1866777  -0.4113066  -0.36931682 -0.30818492 -0.33206606
 -0.24202737 -0.3734972  -0.24256468 -0.33278576 -0.3723102  -0.25774142
 -0.31207278 -0.26554257 -0.21263242 -0.24151582 -0.42566198 -0.38803586
 -0.30322358 -0.27320403 -0.36168995 -0.25741002 -0.16549602 -0.24553928
 -0.31925786 -0.15701097 -0.04453413 -0.34297055 -0.16452493 -0.3429567
 -0.22259043 -0.00240411 -0.5073293  -0.19714817 -0.2590672  -0.22998206
 -0.17667244 -0.14264145 -0.20594653 -0.30531907 -0.2031698  -0.25052327
 -0.16885078 -0.38378006 -0.26741686 -0.29932958 -0.14573273 -0.2222678
 -0.2323496  -0.2238151  -0.2648544  -0.1899968  -0.26928857 -0.35584754
 -0.34420547 -0.17342202 -0.3206192  -0.25085    -0.22622056 -0.28340888
 -0.13890837 -0.24833637 -0.26421258 -0.35316414 -0.15973954 -0.3202209
 -0.3189342  -0.40083367 -0.32205656 -0.25720948 -0.33890852 -0.14452378
 -0.4395318  -0.31160963 -0.06363187 -0.29007208 -0.29488042 -0.18744066
 -0.28042993 -0.1930144  -0.3454115  -0.2427958  -0.12502834 -0.1926558
 -0.30216366 -0.21490166 -0.42230463 -0.36137554 -0.2106748  -0.14231709
 -0.24869707 -0.12139887 -0.15421873 -0.11704051 -0.2530893  -0.23672621
 -0.25074083 -0.16225523]
resnet_block_3/conv2d_9/kernel:0
(3, 3, 128, 128)
[[[[ 0.16678905 -0.10785149  0.10805204 ...  0.12883629  0.1677387
    -0.10487531]
   [-0.1494433  -0.25335363 -0.17248698 ...  0.17579015 -0.10678406
    -0.12356459]
   [-0.11681537  0.03390813 -0.17474057 ... -0.06153049  0.04818816
    -0.05494253]
   ...
   [ 0.07052243 -0.15967219 -0.08387681 ... -0.15264724  0.15373316
    -0.03835559]
   [ 0.03435762  0.08441202 -0.13830292 ... -0.2065563  -0.02462177
    -0.08028299]
   [-0.13126354 -0.01926158 -0.13184245 ... -0.11546248  0.11916416
     0.21647087]]

  [[ 0.02974969  0.11516035  0.06270707 ...  0.15768322 -0.04921816
     0.00645213]
   [-0.16495574 -0.32553172 -0.27450377 ...  0.2901402  -0.33347052
    -0.00537296]
   [ 0.08900504 -0.00075407 -0.24437764 ...  0.01833893  0.02700952
    -0.04146623]
   ...
   [ 0.10234503  0.07104464 -0.01086889 ... -0.02206168 -0.19118068
    -0.21297719]
   [-0.05120062  0.04407131 -0.0170634  ... -0.07647653 -0.09019838
     0.13242632]
   [ 0.06321926 -0.0233716  -0.1829214  ... -0.02469645 -0.04346893
     0.01986764]]

  [[ 0.04170125 -0.05205839 -0.12441032 ...  0.16789253 -0.07080606
     0.08471132]
   [ 0.01952578 -0.26113984 -0.09020711 ...  0.09174584 -0.15383314
     0.12155118]
   [-0.11945941 -0.1565753   0.06788991 ... -0.04576004 -0.25783804
     0.01800147]
   ...
   [ 0.04490702  0.01024709  0.01566384 ... -0.13157785 -0.03667839
    -0.06876089]
   [ 0.01473808  0.06104227 -0.01798715 ... -0.03167608  0.04128504
     0.2656269 ]
   [ 0.0355093  -0.08824107  0.10372587 ...  0.03899475  0.02788151
     0.03743732]]]


 [[[-0.01395719  0.3322212   0.12907071 ...  0.06527068 -0.02047019
     0.00367391]
   [-0.04593277 -0.14448948 -0.09702538 ... -0.02208648 -0.12921254
    -0.0762171 ]
   [-0.11353032  0.12987572 -0.01792572 ... -0.16468482 -0.2572043
     0.02084596]
   ...
   [-0.08299465  0.05255808 -0.11951014 ... -0.08550828  0.10708901
    -0.10284096]
   [ 0.11558807 -0.01355792  0.02766001 ...  0.05700944  0.01281307
    -0.0457746 ]
   [-0.05460433 -0.13839202 -0.22093582 ...  0.08710872 -0.09890611
    -0.09527843]]

  [[-0.0738302  -0.08137553  0.16491067 ...  0.0583824   0.15392084
     0.03992355]
   [-0.31617516  0.01392002  0.05309186 ...  0.08938381 -0.21425712
     0.0916369 ]
   [-0.33043063 -0.06013068  0.11881326 ... -0.22509992 -0.31154713
    -0.01083781]
   ...
   [-0.06904238 -0.17276376  0.01411976 ... -0.04671051  0.05038996
    -0.08933155]
   [-0.27640334 -0.00405711  0.00715726 ...  0.13551521 -0.1486605
     0.02074682]
   [ 0.14478293  0.15060869 -0.15874703 ... -0.00084313 -0.08012382
     0.13315497]]

  [[-0.12608375 -0.09114863  0.04188532 ... -0.08716503  0.12963663
    -0.01908031]
   [-0.15110867 -0.09883448  0.06484102 ...  0.01877197 -0.05571884
     0.11618593]
   [-0.19323061  0.01284859 -0.0109544  ... -0.28404748 -0.06049845
    -0.037584  ]
   ...
   [-0.05066008 -0.06587783  0.10765319 ... -0.19434714 -0.08656476
    -0.09779299]
   [-0.11771554 -0.11906809 -0.08491232 ...  0.10593637  0.04447915
     0.07178999]
   [ 0.17268808  0.02278283  0.04508644 ...  0.07144924  0.02523886
     0.26786098]]]


 [[[-0.0599121   0.02509768  0.03242877 ... -0.15808344  0.00617919
     0.06915111]
   [ 0.0433457  -0.01628275  0.14838803 ... -0.1059113  -0.03892021
     0.09725093]
   [-0.04894339 -0.02398209 -0.12307663 ... -0.09476445 -0.19147907
    -0.20628476]
   ...
   [ 0.05632444  0.0056943   0.02382889 ... -0.01042873  0.20412004
     0.05874192]
   [ 0.06967158  0.14355348 -0.01312982 ...  0.1320558   0.00998789
    -0.12785687]
   [ 0.16159786 -0.09675656 -0.11172208 ...  0.17635366  0.26253977
    -0.1811247 ]]

  [[ 0.04965696  0.12938155  0.01746351 ... -0.01151969  0.07205576
    -0.00703466]
   [-0.11276957  0.03029508  0.07265124 ... -0.05324091 -0.02410745
     0.07533826]
   [-0.04828984  0.07658288 -0.03537504 ... -0.00054516 -0.04001111
    -0.01455817]
   ...
   [ 0.05505716 -0.01636156 -0.12301625 ...  0.07096206 -0.01751538
    -0.05628905]
   [-0.11464859 -0.07781669  0.11530198 ...  0.13611716  0.10259376
     0.00560324]
   [-0.15118778  0.01034381 -0.03124361 ... -0.0102598  -0.00936662
     0.0440435 ]]

  [[ 0.03185942 -0.05738312 -0.17551827 ... -0.09634244 -0.06730957
    -0.01906395]
   [ 0.00043137  0.10121711 -0.1755395  ... -0.09452958 -0.14972746
    -0.01135801]
   [-0.02963802  0.12500224 -0.17846505 ...  0.01626429 -0.01158052
    -0.10056765]
   ...
   [ 0.03178941 -0.11668537 -0.1028474  ... -0.03772986 -0.04413772
    -0.06200115]
   [-0.14918093 -0.16290337 -0.0294461  ... -0.02514409 -0.04845857
    -0.05876426]
   [-0.13940312 -0.37774447  0.07004534 ...  0.10899892  0.04060936
     0.06811092]]]]
resnet_block_3/batch_normalization_9/gamma:0
(128,)
[0.82031655 1.0673951  0.9194764  0.9589045  1.098994   0.7379981
 0.89154464 0.92685175 0.88209116 0.76662886 0.994774   1.0381963
 0.9742752  0.97067386 0.8615853  0.9169989  0.9809036  0.9479148
 0.8718567  0.9276424  0.8997625  0.93998206 1.041682   0.97119755
 0.8619462  0.63436234 0.72538143 1.1249747  0.9235635  0.87010384
 0.67866427 0.89349055 0.9743069  0.93222123 0.92330796 0.7247612
 0.8356101  0.8949668  0.90385115 0.9971449  0.9142247  0.8732346
 0.927293   0.9283419  0.93400896 0.92574286 0.8597953  1.0211506
 1.0569526  0.83612835 0.98342115 0.9814967  0.9894223  0.8958122
 0.84834635 0.9109863  0.7793242  0.89729834 0.86871016 0.85556597
 0.7729806  1.0310978  0.93224484 0.90258396 0.931944   0.8840563
 0.98448265 0.9073904  0.8979666  0.87978256 1.0295708  0.74551547
 0.85214996 0.9759869  1.1491266  0.9384695  0.9108557  0.79377115
 0.8309666  0.8463045  0.956239   0.8826508  0.77722275 0.8446468
 0.9311361  0.8429662  0.80049634 0.8848481  0.89334023 0.97874427
 0.8727271  0.8739603  0.8600797  0.9172689  0.94923997 0.9880891
 0.86624664 1.0986819  0.95142347 1.0211011  0.993684   0.9570186
 0.9432101  0.72812486 0.88111395 0.9670561  1.0538218  0.8923554
 1.116855   0.8797465  0.86210036 0.94954556 0.9837543  1.0658512
 0.94143236 0.90771604 0.89265126 0.94418854 0.93382883 0.9877275
 0.8158319  1.036277   1.0840632  0.9188529  0.9327141  0.961356
 1.0577408  0.9021811 ]
resnet_block_3/batch_normalization_9/beta:0
(128,)
[-0.12276541 -0.37518644 -0.3443015  -0.29186007 -0.3240329  -0.29190132
 -0.3756519  -0.23742725 -0.10655981 -0.18726996 -0.33724946 -0.22941293
 -0.22412921 -0.45979035 -0.2328202  -0.3179454  -0.23780316 -0.3706661
 -0.26202065 -0.21451008 -0.17530046 -0.36257693 -0.28017855 -0.3430668
 -0.37515587 -0.44320744 -0.33282712 -0.25190774 -0.40717503 -0.2575719
 -0.26128158 -0.06452046 -0.2171431  -0.22978306 -0.3504636  -0.4328787
 -0.31798905 -0.30399302 -0.26536793 -0.26288217 -0.29298395 -0.3964287
 -0.35010904 -0.28744215 -0.15468965 -0.09654486 -0.1861275  -0.35978433
 -0.3242555  -0.11210029 -0.27224237 -0.37457934 -0.31509197 -0.23342304
 -0.2213952  -0.28679168 -0.23347959 -0.21164423 -0.37301332 -0.26617378
 -0.22238298 -0.2636557  -0.2809177  -0.21273863 -0.29853383 -0.35057583
 -0.2527572  -0.36176655 -0.23417062 -0.3514349  -0.32570803 -0.27270645
 -0.29410088 -0.26926276 -0.1983326  -0.30317557 -0.04460017 -0.35651913
 -0.26143986 -0.29491848 -0.24128288 -0.38539216 -0.2269542  -0.2292365
 -0.36119404 -0.3032224  -0.2037528  -0.3880972  -0.34552425 -0.15027326
 -0.26879832 -0.22963144 -0.20806041 -0.21371353 -0.25570816 -0.23573844
 -0.33651906 -0.13608691 -0.19569628 -0.37000796 -0.24620485 -0.20138438
 -0.43706664 -0.19919206 -0.3421     -0.3671576  -0.07867137 -0.23010409
 -0.29770404 -0.21868397 -0.35861292 -0.3476558  -0.17532988 -0.2999721
 -0.26821905 -0.23375073 -0.40045506 -0.40274867 -0.27604526 -0.35159853
 -0.32798055 -0.2620488  -0.33317605 -0.4364082  -0.22581528 -0.372859
 -0.4123485  -0.14723451]
resnet_block_4/conv2d_10/kernel:0
(3, 3, 128, 256)
[[[[ 0.02148878  0.19208658 -0.03683987 ...  0.04906978 -0.06565791
     0.01559626]
   [-0.13808103  0.21845119 -0.07769796 ... -0.068753   -0.02128451
     0.15487605]
   [ 0.05043589 -0.07518836 -0.01948377 ...  0.11214099 -0.12449665
    -0.0265452 ]
   ...
   [-0.23077013 -0.092424   -0.20782945 ... -0.16794169 -0.06047132
     0.07465385]
   [-0.10799738  0.18487965 -0.03690758 ... -0.16043548 -0.08038345
    -0.0144202 ]
   [ 0.19896165 -0.08271971  0.0571409  ... -0.05778521 -0.14414482
    -0.02138214]]

  [[ 0.09164289  0.19928268 -0.03448124 ... -0.0587197  -0.05690654
     0.01398292]
   [ 0.13271336 -0.06474427  0.07288554 ... -0.03727005 -0.05059351
     0.17242233]
   [ 0.18621778 -0.09518864  0.01040813 ... -0.03274414 -0.11319177
     0.09264769]
   ...
   [-0.34711382 -0.17496555 -0.16305989 ... -0.16301136 -0.11842214
     0.010597  ]
   [-0.25121364 -0.12812142  0.18570544 ...  0.00686349  0.16189392
     0.17051083]
   [ 0.09926455 -0.06552404  0.16210751 ... -0.18824443  0.03100652
     0.08387101]]

  [[ 0.19632031  0.07541291  0.06765788 ...  0.01568667 -0.18204886
     0.04401391]
   [ 0.0357283  -0.28522873  0.11116803 ... -0.01935868 -0.1538054
    -0.09293968]
   [-0.09621379  0.05296     0.03436008 ... -0.13412844 -0.06078244
    -0.01193485]
   ...
   [-0.25993088 -0.10349134 -0.06838795 ... -0.06977347 -0.01291973
    -0.13553071]
   [-0.08403093  0.01220565  0.1441113  ...  0.04173133 -0.07358146
     0.10921714]
   [ 0.06172414 -0.00185609  0.1312522  ... -0.14502198 -0.00209521
    -0.03937609]]]


 [[[ 0.17328028 -0.17294398 -0.02833983 ...  0.06241483 -0.08365664
     0.22370467]
   [-0.09252517  0.01705328 -0.00788044 ... -0.04261135  0.19380845
    -0.17616871]
   [ 0.03955266 -0.03283953 -0.02616061 ...  0.01018446 -0.18966869
    -0.03446405]
   ...
   [-0.07532623 -0.1600749  -0.04113325 ...  0.00360261 -0.05673058
     0.01278469]
   [-0.12774344  0.03844189  0.00207982 ... -0.03455186  0.07328148
    -0.029595  ]
   [-0.00091791  0.03226167  0.05755434 ... -0.01327386 -0.07150597
     0.09488822]]

  [[-0.03064758 -0.06930424  0.02494745 ...  0.14783715 -0.18099932
     0.21608467]
   [-0.05333467 -0.08145702 -0.15813746 ...  0.04377814  0.10286839
    -0.02739877]
   [-0.00415608 -0.14145797 -0.15188746 ... -0.04807518 -0.21026412
     0.10635649]
   ...
   [-0.07784484 -0.12771812  0.08300474 ...  0.04212536  0.05423917
    -0.13659382]
   [-0.20182125  0.04151994 -0.11596958 ...  0.09712955 -0.17960112
     0.20325558]
   [-0.09372015 -0.19319153  0.02931222 ...  0.05946833 -0.18465152
     0.25931045]]

  [[ 0.17482752 -0.13147654  0.03276153 ...  0.09464162  0.02167829
     0.11689876]
   [-0.13870573 -0.08211199 -0.13476516 ...  0.07325038  0.05125745
     0.00533391]
   [ 0.0421163   0.03931979 -0.05150564 ... -0.0673157   0.01966667
     0.15187575]
   ...
   [-0.1023517  -0.05512324 -0.01081611 ... -0.04782401  0.01795377
    -0.11107291]
   [ 0.11021868  0.09155885  0.03539861 ...  0.00905037 -0.0422526
     0.00598604]
   [ 0.10102505  0.04440724  0.0251919  ...  0.06345359 -0.16795503
     0.01775287]]]


 [[[-0.00491741  0.02244409 -0.17769499 ...  0.01798137  0.10450429
    -0.06518971]
   [ 0.05614775 -0.03662727  0.09781542 ...  0.09006825  0.14130965
    -0.09829932]
   [-0.04655888  0.10506503  0.17710578 ... -0.02329907 -0.1396403
     0.10823898]
   ...
   [-0.08064713 -0.19859046  0.17277919 ... -0.05885177  0.14717838
     0.09574442]
   [ 0.01996148  0.08654723  0.07643062 ...  0.08921459  0.03787551
    -0.17777821]
   [-0.0926758   0.09530305 -0.16681871 ... -0.17233506  0.01411259
     0.07286455]]

  [[ 0.06442215  0.09713116 -0.07731559 ...  0.00405141  0.25113383
     0.0618895 ]
   [-0.29051512 -0.08402354 -0.3051125  ... -0.05076259 -0.07828772
     0.07649365]
   [-0.17642613  0.23383594 -0.03046461 ... -0.28854015  0.05186086
     0.01412934]
   ...
   [-0.16687119 -0.05493664  0.14515509 ... -0.14825872  0.08049047
    -0.07001843]
   [-0.04905727  0.05230183 -0.08298642 ... -0.03491338 -0.1805759
     0.02163926]
   [-0.18495572  0.08386891 -0.172286   ...  0.00091679  0.25935492
    -0.1602257 ]]

  [[-0.03734394 -0.07883323  0.16535607 ... -0.18207596  0.05128253
     0.1166876 ]
   [ 0.01656053 -0.14354356 -0.03670869 ...  0.13692129 -0.1624388
     0.02821268]
   [ 0.02411677  0.06644259 -0.00045493 ...  0.05937002  0.11766055
    -0.24953349]
   ...
   [-0.08516225 -0.11119041 -0.05465585 ... -0.03223417  0.13797243
    -0.16557634]
   [ 0.00251255 -0.10249223 -0.00560968 ... -0.02789008 -0.07952552
     0.1162698 ]
   [-0.1386157  -0.12458     0.0876604  ...  0.05574428  0.14014234
     0.0501447 ]]]]
resnet_block_4/batch_normalization_10/gamma:0
(256,)
[0.9133591  0.9766749  0.82773715 0.69890636 1.0068411  0.86391217
 1.0536197  0.9624649  0.7361876  0.955452   1.0676022  0.9630086
 0.95096457 0.82479954 1.078629   1.0448185  0.9813857  1.0537037
 1.2411186  0.99898815 1.0708975  1.0830289  0.8923929  0.88667524
 1.0503412  0.8478216  0.97013336 1.0274305  0.9568715  0.93673766
 1.0775614  0.99162626 0.93010443 0.91017437 1.1989882  0.9186275
 0.9093181  1.0752369  0.83631337 1.1328915  1.0595971  1.1227652
 0.945156   0.9119759  0.9063344  1.0319312  0.79295665 0.97465867
 0.77827954 0.8040704  0.61412156 1.0229709  0.9793441  1.0596089
 1.0785625  0.8543308  0.99775285 1.1399177  1.1271987  0.9006979
 0.93012947 1.0216625  0.9157509  0.97138935 0.8287794  1.0168662
 0.94019324 1.2491069  0.8784548  1.0265192  1.0387229  0.9372935
 1.0081307  0.97923    1.0904001  1.0299854  1.1073745  0.7955682
 1.0612141  0.872123   1.0587544  0.8951622  1.0212809  0.9700635
 0.96386826 0.74472946 1.0114335  0.79026127 1.0512054  1.0130522
 1.0919182  0.98945767 0.7725939  1.1221508  0.8873389  1.0050304
 1.1423352  0.90542513 0.87904984 0.90633297 0.80070233 1.346975
 0.6479235  1.0266191  0.8877913  1.0144292  1.0001304  0.9718074
 0.9331587  0.8536611  1.0161607  0.77454704 0.9104405  0.8970931
 0.89252627 0.8724249  1.0770305  0.93274856 0.8369736  0.96370655
 0.86139834 1.1212758  0.97470945 0.9981815  0.8966481  0.8533532
 1.0031999  0.9759968  0.8404541  0.8088677  1.0031494  1.0433213
 0.8936247  0.8847853  0.92075527 0.72075444 0.88338125 0.95724
 0.9563675  1.0435847  0.93430626 0.9412652  0.9043854  0.81610835
 0.8852754  0.8529619  1.2178767  0.97112626 1.1201458  0.98605835
 1.1217797  0.95343    0.8579358  0.9675714  1.0559686  1.1723192
 0.9427022  1.0320286  0.88615215 0.78499264 1.0123984  1.0977131
 1.1195002  0.8736826  1.153135   1.0451845  1.0377256  0.87684876
 0.8400584  1.0233239  0.75466883 0.98540795 0.87981313 0.9163859
 0.84581983 0.85650635 1.1328493  0.9695824  0.9666889  1.1755432
 0.9757521  0.94163924 0.8378589  0.7134042  0.8047056  1.118472
 1.0072728  0.86408997 0.8198535  1.0251236  0.99972045 1.0433108
 0.90716517 0.94074327 0.7869268  0.95255214 1.160136   0.91147035
 1.0430607  1.0637904  0.89185905 0.95586866 0.97969043 1.13584
 0.91201967 1.0139371  0.8785116  1.1122622  1.0639269  1.0149918
 1.0450768  1.0034319  1.0517281  0.8832622  0.89882636 1.1961281
 0.96394235 1.039958   1.0459434  0.94825244 0.8964878  0.6579251
 1.0269958  1.0567467  0.8491189  1.0305275  1.1978463  0.97325575
 0.7765777  1.0795397  0.95378697 0.7546476  0.92790943 0.7468362
 1.0392021  0.9865819  1.0907083  1.0088896  1.0135612  0.77824396
 0.8725666  0.9801482  1.0794508  0.9667737  1.1444335  0.8260927
 0.78465754 0.74314934 0.7826964  0.82186586 0.89918303 0.891442
 0.97719485 0.927932   0.9357049  0.9013523 ]
resnet_block_4/batch_normalization_10/beta:0
(256,)
[-0.15553626 -0.27309418 -0.2846653  -0.32674867 -0.27865994 -0.38735268
 -0.28912705 -0.29328188 -0.34640604 -0.2696401  -0.40871897 -0.34852582
 -0.45893472 -0.45599958 -0.32465577 -0.2807536  -0.21168754 -0.36518604
 -0.1636835  -0.30099592 -0.33399877 -0.29457232 -0.12083403 -0.40684634
 -0.16614966 -0.28571394 -0.32641563 -0.26958054 -0.3881713  -0.4406323
 -0.29120153 -0.43663767 -0.29044765 -0.38948864 -0.31802395 -0.3377498
 -0.38905326 -0.27286077 -0.33515853 -0.23971008 -0.27405462 -0.2341126
 -0.46029544 -0.3627715  -0.40033728 -0.32469988 -0.3937418  -0.28529438
 -0.30359265 -0.31574437 -0.2098124  -0.29501602 -0.20284043 -0.22691727
 -0.33310676 -0.37512425 -0.22311024 -0.43849143 -0.28282553 -0.3353449
 -0.4024269  -0.35276234 -0.36587608 -0.28314015 -0.3419166  -0.30058736
 -0.2799872  -0.15727757 -0.47704834 -0.38232985 -0.3269468  -0.39973027
 -0.25963727 -0.15616919 -0.3661455  -0.46284145 -0.4055958  -0.32166138
 -0.43504792 -0.31216782 -0.35034662 -0.19975396 -0.44845283 -0.29549018
 -0.3546697  -0.41373459 -0.44620058 -0.40247554 -0.18734314 -0.37637216
 -0.32267267 -0.40830973 -0.2804665  -0.3293621  -0.2899327  -0.31862125
 -0.3072507  -0.32822818 -0.30079472 -0.36976704 -0.46151093 -0.3839511
 -0.39907295 -0.25683042 -0.37671804 -0.36318478 -0.4255174  -0.33733004
 -0.39013937 -0.3622297  -0.11686087 -0.38556352 -0.3121087  -0.4030583
 -0.32677785 -0.25152344 -0.32402894 -0.3265969  -0.40804663 -0.25871962
 -0.33006203 -0.34618205 -0.2314232  -0.32697332 -0.32264248 -0.48707592
 -0.2833534  -0.31210327 -0.17657545 -0.29044604 -0.26798376 -0.28549615
 -0.25747666 -0.36015338 -0.4078412  -0.38870618 -0.3638504  -0.3253433
 -0.3002224  -0.24032374 -0.18847963 -0.3818459  -0.39069524 -0.263641
 -0.21111897 -0.29051325 -0.13387752 -0.17666738 -0.35359815 -0.41864562
 -0.32567808 -0.35418254 -0.3820018  -0.28109053 -0.43851304 -0.1698629
 -0.38037375 -0.25288746 -0.4278094  -0.28157586 -0.35545385 -0.23264629
 -0.22425525 -0.36304379 -0.180782   -0.24288487 -0.2858904  -0.35918242
 -0.33581024 -0.273408   -0.30489278 -0.33039925 -0.38936916 -0.37112266
 -0.44993088 -0.3417124  -0.29575077 -0.21653615 -0.290787   -0.3256778
 -0.24422921 -0.4077883  -0.39917126 -0.29641837 -0.3810294  -0.35398
 -0.24943236 -0.25177413 -0.34197503 -0.32430783 -0.20544535 -0.27445212
 -0.27234033 -0.29716656 -0.45318258 -0.23695557 -0.19431722 -0.3604825
 -0.36814645 -0.30535313 -0.37241232 -0.27109975 -0.339097   -0.4337067
 -0.3927184  -0.18543977 -0.34023607 -0.30043632 -0.34853446 -0.33927017
 -0.34229818 -0.28147304 -0.28191388 -0.33535552 -0.32266134 -0.32080746
 -0.31161302 -0.25254714 -0.33793306 -0.48309106 -0.38972887 -0.44266573
 -0.2883092  -0.1963762  -0.40425113 -0.290534   -0.2789234  -0.27884027
 -0.2700289  -0.25523096 -0.32120895 -0.27769476 -0.33332795 -0.40432626
 -0.3365729  -0.35810795 -0.4726207  -0.37112105 -0.32207295 -0.2430414
 -0.43067157 -0.3543871  -0.24080436 -0.3244398  -0.2998125  -0.33422002
 -0.23049235 -0.29504162 -0.20761482 -0.3289048  -0.34966213 -0.27455723
 -0.37431508 -0.19692801 -0.29121444 -0.3913953 ]
resnet_block_4/conv2d_11/kernel:0
(3, 3, 256, 256)
[[[[ 2.30655849e-01  8.37085173e-02 -1.19576722e-01 ...  6.12851903e-02
     1.76168323e-01 -7.63659477e-02]
   [-1.66708529e-01  2.91158129e-02 -1.69234872e-01 ... -2.38049850e-01
    -8.55507553e-02 -7.52614206e-03]
   [ 1.45146817e-01  1.93177506e-01 -4.83015440e-02 ... -5.25984019e-02
     1.51854590e-01  2.91320076e-03]
   ...
   [ 3.24463286e-02  6.55701905e-02 -1.65633596e-02 ... -6.35660253e-03
     3.00061285e-01 -8.74371529e-02]
   [ 2.47814953e-02 -1.00757733e-01 -3.99710268e-01 ...  6.63884431e-02
     4.06289399e-02 -3.78457084e-02]
   [ 5.87839633e-02  3.72087210e-02  2.88545221e-01 ... -1.34870917e-01
    -1.65414900e-01 -1.54670224e-01]]

  [[-2.72094924e-02  1.25802591e-01  6.78711832e-02 ...  3.82899167e-03
     1.00921601e-01  4.72643375e-02]
   [-2.48683140e-01 -1.45686641e-02 -6.72455179e-03 ... -5.71435131e-02
     1.02537625e-01  5.11830822e-02]
   [-2.45429277e-01  6.43560663e-02 -1.57924220e-01 ... -5.47232032e-02
    -8.02617893e-02  2.62212425e-01]
   ...
   [-4.30542231e-02  1.32283673e-03  9.31837633e-02 ...  4.85936329e-02
    -1.36948273e-01  2.56897628e-01]
   [ 3.20125520e-02  2.05834173e-02 -1.72159761e-01 ... -1.66882593e-02
     1.40614018e-01 -2.53856760e-02]
   [ 3.73499803e-02 -1.12947829e-01 -6.91485107e-02 ... -7.66596198e-02
    -4.22476903e-02 -2.75510252e-02]]

  [[ 3.47505286e-02  7.03988597e-02  2.09730640e-02 ... -1.62391454e-01
     3.65892723e-02  5.00002503e-02]
   [ 4.13146727e-02  4.58559357e-02 -1.48038253e-01 ... -1.66271031e-02
     1.92243084e-01 -2.88320065e-01]
   [ 9.67801735e-02  1.42685145e-01 -5.25010526e-02 ...  1.13054335e-01
     3.76127064e-02 -2.92223394e-02]
   ...
   [-4.80692424e-02  4.75874394e-02  1.29616618e-01 ... -2.40611762e-01
    -2.90210526e-02 -7.69080520e-02]
   [-1.99199721e-01 -3.24933454e-02 -1.81150939e-02 ... -8.71754959e-02
     5.17021678e-02  9.93289053e-02]
   [-2.19784863e-03  9.30906236e-02  2.84745134e-02 ...  8.63016844e-02
    -1.12049885e-01 -1.31640499e-02]]]


 [[[-1.27421945e-01 -2.04294667e-01  6.07470945e-02 ...  3.57572958e-02
     8.23266283e-02 -6.84796348e-02]
   [ 2.45022960e-02 -1.02813169e-01  6.49691448e-02 ... -7.08593130e-02
    -8.60913247e-02  5.96097782e-02]
   [-3.48711275e-02  1.07068149e-02  2.38097797e-04 ... -1.75223216e-01
    -6.99350834e-02  1.71906792e-03]
   ...
   [-2.39373893e-02  1.99490692e-03  6.33250996e-02 ...  5.29735209e-03
    -7.19052255e-02 -7.59142265e-02]
   [-3.08676772e-02 -4.06404175e-02  1.06566492e-02 ...  4.00144458e-02
    -6.85706444e-04 -2.20159933e-01]
   [ 5.44835366e-02 -7.33783320e-02  1.60415962e-01 ...  6.40432909e-02
    -5.12754433e-02  9.25116241e-02]]

  [[-1.17617752e-02  3.54479775e-02  4.73391712e-02 ... -9.56275016e-02
    -8.79070684e-02 -2.33341847e-02]
   [ 8.82720109e-03  5.46347722e-02  8.26520324e-02 ... -2.42209598e-01
    -4.53305393e-02 -3.03463358e-02]
   [ 3.10619769e-04  1.29567627e-02  2.12434307e-01 ...  2.14454997e-02
     4.07580063e-02  7.93691128e-02]
   ...
   [-1.11234397e-01 -1.12822941e-02 -8.36714357e-02 ... -4.77145091e-02
    -2.42588352e-02  5.40664159e-02]
   [-3.15335467e-02  4.87459786e-02 -8.61705691e-02 ... -1.09503210e-01
    -2.96640098e-02 -8.16616714e-02]
   [-1.34359866e-01  1.54320449e-01 -2.77413838e-02 ...  2.24161103e-01
     1.50060117e-01  8.14287737e-02]]

  [[-1.61605597e-01 -4.09370288e-04 -1.02200173e-01 ... -3.25604342e-02
     7.80015439e-02  1.88028708e-01]
   [-1.15637621e-02  6.94869086e-02  5.13645411e-02 ...  1.70601010e-02
    -1.06203377e-01  8.41825455e-02]
   [-4.58215550e-02 -1.28683969e-01 -5.20208143e-02 ...  1.50719047e-01
    -1.50145531e-01  1.12507626e-01]
   ...
   [-1.81033313e-01  7.58110881e-02  7.63146505e-02 ...  4.35585193e-02
     8.87285024e-02 -1.06096543e-01]
   [-9.90235135e-02 -9.94436890e-02 -2.53464188e-02 ...  7.81861017e-04
    -2.92901080e-02  6.11039028e-02]
   [ 1.41736552e-01  3.82051468e-02  3.83380614e-02 ... -4.22589891e-02
     2.51512136e-02 -7.98859969e-02]]]


 [[[ 1.42589226e-01  2.21689064e-02  1.72855873e-02 ... -8.70130733e-02
     1.50741860e-01 -7.96129331e-02]
   [-7.79390614e-03 -2.54488736e-01 -1.95117831e-01 ... -6.09661192e-02
    -9.08112004e-02 -3.73274274e-02]
   [ 2.12598979e-01 -2.61746012e-02  7.76637252e-03 ...  1.19813778e-01
     9.03218016e-02 -6.33958653e-02]
   ...
   [ 1.70193911e-01 -1.02324858e-02  1.40817940e-01 ... -1.87190268e-02
     9.68765840e-02 -4.93885837e-02]
   [-2.22490966e-01  1.09441048e-02 -1.78383112e-01 ...  7.54622668e-02
     8.23911875e-02  3.65214013e-02]
   [ 1.03723839e-01 -1.03856236e-01  3.82434167e-02 ...  1.08739272e-01
    -1.35767907e-01 -1.15218073e-01]]

  [[ 1.25113785e-01 -1.07394740e-01 -1.64649442e-01 ...  7.24687129e-02
    -3.31723876e-02  1.18275918e-01]
   [ 6.50112107e-02 -2.44294003e-01  1.09135516e-01 ... -3.19464765e-02
    -4.58083488e-02 -5.88778071e-02]
   [ 6.82112351e-02  1.50828809e-01 -2.84695458e-02 ...  8.15075412e-02
     7.20334565e-03 -8.90459642e-02]
   ...
   [ 1.16846956e-01 -4.32621427e-02  1.63734868e-01 ...  2.02766642e-01
    -2.76923217e-02  3.02381571e-02]
   [-1.64449941e-02  3.57878506e-02  1.45232663e-01 ... -3.66567373e-02
     8.21894184e-02 -5.17292731e-02]
   [ 7.42525533e-02 -9.12289768e-02 -1.71926975e-01 ... -1.17942706e-01
     7.22125173e-02  2.18280070e-02]]

  [[ 1.56718045e-01 -5.93213812e-02 -5.46187162e-02 ... -2.15668008e-01
     2.07634903e-02 -4.42613512e-02]
   [-1.16694560e-02 -7.21448585e-02 -6.22147396e-02 ...  1.24911942e-01
     1.94926292e-01  1.76275894e-02]
   [-5.44637851e-02 -1.22854061e-01  6.55983835e-02 ... -8.50071236e-02
     1.11582996e-02 -2.16762915e-01]
   ...
   [ 5.37221469e-02 -6.33298606e-02 -7.80420005e-02 ... -2.96378918e-02
     2.12938368e-01 -2.78745294e-01]
   [-1.86813682e-01  1.67398646e-01 -2.05629654e-02 ...  8.38525668e-02
    -7.81370699e-02  4.67016138e-02]
   [ 1.40635222e-01 -1.52759282e-02  1.11438580e-01 ... -1.58657685e-01
    -1.34363502e-01 -1.04473211e-01]]]]
resnet_block_4/batch_normalization_11/gamma:0
(256,)
[1.0895339  0.9483588  0.899442   0.82989126 1.0095483  0.9745038
 1.1268988  1.020147   0.9895906  1.1275665  1.0335077  0.910024
 1.0706049  0.9969869  0.88973373 1.0399462  1.0292515  1.0951062
 0.99933964 0.99841386 0.8604042  1.0928996  0.954783   1.001898
 1.0921015  1.0755259  1.0206785  1.0596037  0.9940119  0.9635572
 1.0205822  0.8905142  1.0133437  1.0750648  0.94297326 0.93369806
 1.0587754  0.9233552  1.0137259  0.98830146 1.1158999  0.94645923
 0.97566205 1.0787393  1.0122231  0.97781456 0.8976061  0.8788626
 0.9972867  1.0120325  0.9264944  1.1174809  0.96813375 1.0558331
 0.8900857  1.0512449  0.796679   1.036012   1.0097231  0.92121464
 0.99881965 1.1038666  0.8548621  1.0317963  0.92668283 1.0298656
 0.97452945 0.9938421  0.9506507  0.98129153 0.94512886 1.0563128
 1.0185753  1.11275    1.061257   0.8867862  0.9559042  1.0968783
 1.0033103  0.83397657 1.0961547  0.93910015 1.0833066  1.0599626
 1.0242729  1.034892   0.80881095 1.0265226  1.0641576  0.9916854
 0.9336307  0.937955   0.9640039  1.0205711  0.9805251  0.9745296
 1.2232211  0.9586062  0.8632456  0.9410141  0.92763597 0.97914803
 0.8714313  0.82485723 0.95100695 1.1214447  1.1267172  1.0690902
 0.8578128  0.97960293 0.93167484 0.96182483 0.97905713 1.1434366
 1.1485462  0.9160258  0.9092859  1.0830365  0.77322215 0.92870694
 0.89844924 0.9660325  1.0882303  1.1063248  1.1964865  1.0555475
 1.0297302  1.142153   1.043929   1.0679653  0.98189783 0.97155493
 0.95231694 1.1206069  0.91256386 1.0727607  0.96307206 1.0946344
 0.9688394  0.94232905 1.0161579  1.010372   0.9757547  0.993922
 0.9666784  0.9658332  0.955883   0.88437    1.0010012  0.9553737
 1.0753686  1.1208616  1.1660507  0.87385875 0.8577245  0.84385747
 1.0302056  0.96173954 1.0975924  1.1053917  1.0420449  0.9768351
 1.1404442  1.1082394  1.0530708  0.89581764 0.8267914  0.9560642
 1.0175135  0.8670138  0.83632606 1.1192292  0.80412906 0.95367277
 1.1131512  0.9470528  1.1084938  0.9525318  0.9542957  1.0267173
 1.0979396  1.0455035  0.8649632  1.1115446  0.9862054  0.8869712
 1.100345   1.0566375  0.9786328  0.95551926 0.91632986 0.92945695
 0.92755723 0.91143674 1.1043116  0.97538966 1.1109494  0.9219552
 1.0655216  1.0054206  1.0003685  0.9336951  0.921967   0.95739836
 1.0716112  1.0447568  1.0939736  0.93268424 1.0848887  1.0108091
 1.0199536  0.958055   0.9711576  1.0784078  0.7477065  1.0246229
 1.0848134  0.9872553  1.1377105  0.96478766 0.90200526 1.0265723
 1.1934676  1.0764568  0.9241021  0.99142647 1.1209062  0.9023647
 0.975243   0.9661389  1.0222538  0.94429255 0.86720526 1.0029441
 0.8531484  0.9203514  1.0954965  1.1993926  1.0918132  0.97753054
 1.1598142  1.1907432  0.9775146  0.9657481  1.0255393  0.79464954
 0.9853693  1.0426749  0.91351336 1.0416003  0.89087284 1.1311669
 1.1136348  0.8086721  0.93769276 0.9865317 ]
resnet_block_4/batch_normalization_11/beta:0
(256,)
[-0.21047202 -0.3468934  -0.39714786 -0.30293056 -0.26409978 -0.3227822
 -0.29827476 -0.33730665 -0.29040572 -0.24653634 -0.245366   -0.33895877
 -0.22574446 -0.3093502  -0.16148174 -0.27277455 -0.34970614 -0.30636123
 -0.3522972  -0.21414104 -0.36974588 -0.24459304 -0.28435567 -0.32446122
 -0.39424127 -0.28930715 -0.23909414 -0.33696872 -0.24452606 -0.3351805
 -0.24477577 -0.32913414 -0.28268328 -0.23627079 -0.2705327  -0.27097854
 -0.27374265 -0.37867635 -0.38248482 -0.35692066 -0.2583763  -0.31898874
 -0.3914589  -0.28370374 -0.23931469 -0.3126656  -0.34468645 -0.26106304
 -0.27028134 -0.332716   -0.22513159 -0.36510664 -0.23065092 -0.27172014
 -0.29890522 -0.23390085 -0.31931826 -0.308188   -0.2953792  -0.2373361
 -0.2538112  -0.19288626 -0.20345837 -0.2754764  -0.26865494 -0.27595288
 -0.26334998 -0.23571876 -0.29327783 -0.30590263 -0.3769467  -0.21583985
 -0.2335241  -0.22750434 -0.33781162 -0.2969239  -0.22432142 -0.27518913
 -0.25564393 -0.3113736  -0.3078811  -0.32526708 -0.20978902 -0.26089314
 -0.2868782  -0.36090484 -0.38784203 -0.2739745  -0.26789612 -0.2543117
 -0.30147114 -0.2872283  -0.36612323 -0.2585226  -0.27319998 -0.21085961
 -0.3899624  -0.32066268 -0.28357142 -0.28385237 -0.23043664 -0.24363747
 -0.3312228  -0.33709008 -0.36106068 -0.33857027 -0.34506577 -0.21662696
 -0.2522085  -0.3572576  -0.35184807 -0.34691688 -0.31181937 -0.23317787
 -0.17938805 -0.27606332 -0.2447971  -0.3820046  -0.35821706 -0.3186644
 -0.2606277  -0.24483989 -0.3274427  -0.23686527 -0.31127733 -0.32922918
 -0.22597168 -0.1389115  -0.3278131  -0.2019221  -0.16437148 -0.31591967
 -0.3197509  -0.25633004 -0.3042093  -0.18885985 -0.2626344  -0.27380782
 -0.34060517 -0.2917942  -0.23019299 -0.2794545  -0.29016817 -0.24698894
 -0.28276286 -0.26946673 -0.395766   -0.35217434 -0.3421257  -0.34759012
 -0.31857428 -0.3009278  -0.28464055 -0.36962494 -0.3045902  -0.34793207
 -0.25907254 -0.36578152 -0.2813314  -0.29953882 -0.35919258 -0.1843727
 -0.28438956 -0.20921823 -0.19444624 -0.21826828 -0.29240185 -0.27513152
 -0.24475034 -0.3377568  -0.29051355 -0.17508456 -0.33359936 -0.26768947
 -0.2568817  -0.29110223 -0.2787747  -0.26605597 -0.17553808 -0.3199939
 -0.2822732  -0.2204542  -0.3548218  -0.33901134 -0.3018283  -0.26814714
 -0.23113286 -0.36065018 -0.26426607 -0.2986982  -0.18978862 -0.24403799
 -0.3801956  -0.25955245 -0.23712555 -0.37382832 -0.26632014 -0.3312571
 -0.29265425 -0.22721934 -0.326008   -0.31108052 -0.28806725 -0.2600781
 -0.23444688 -0.2386297  -0.2604934  -0.273308   -0.33532515 -0.27813342
 -0.2926641  -0.23650216 -0.28123623 -0.18222493 -0.31001616 -0.24983208
 -0.30379623 -0.2811764  -0.17122406 -0.3770882  -0.3573583  -0.18864691
 -0.270193   -0.3001113  -0.2607855  -0.2947069  -0.21187393 -0.25724858
 -0.3714187  -0.31646863 -0.37186223 -0.19580652 -0.26135275 -0.34835175
 -0.30038995 -0.3419618  -0.3146221  -0.24206796 -0.2763498  -0.27417603
 -0.17687638 -0.22970958 -0.2729711  -0.22854868 -0.3464152  -0.20129028
 -0.31756952 -0.3370768  -0.23642509 -0.2611238  -0.29716498 -0.24234182
 -0.32185283 -0.3240748  -0.23429632 -0.44780603]
resnet_block_4/conv2d_12/kernel:0
(1, 1, 128, 256)
[[[[ 0.14912413 -0.12308095  0.13552822 ...  0.02938301  0.2980649
    -0.05604023]
   [-0.04131933  0.21234486 -0.02329021 ... -0.12011897 -0.10075707
     0.04842504]
   [-0.07504266  0.02599558 -0.00586379 ...  0.03319557 -0.01187507
     0.27444303]
   ...
   [-0.03891084 -0.02030055 -0.00168499 ...  0.16948618  0.18976451
     0.2905192 ]
   [ 0.01227712  0.14154543 -0.1161158  ...  0.10005388  0.04694703
    -0.11618869]
   [-0.11115547  0.037999   -0.048268   ... -0.13040495  0.04883184
    -0.00063388]]]]
resnet_block_4/batch_normalization_12/gamma:0
(256,)
[1.0455781  1.0371202  1.0427017  0.9816839  0.93717295 0.9274127
 1.0084268  1.0297557  1.1455905  1.1364081  0.86831677 1.1146617
 0.9264338  1.0199565  1.1047004  1.1296166  1.120594   1.149603
 0.8717294  1.0682467  0.8508872  1.1210339  0.8537253  0.9950992
 0.9824943  0.9769336  1.1338804  1.0352921  0.91547394 1.0472876
 0.97099125 1.0486672  1.0699947  1.0332056  0.98367184 0.9099903
 0.93103015 0.92615825 1.000265   0.89186484 1.1709524  1.0339198
 1.0719059  1.1692202  1.2057621  0.9181922  0.82310575 1.0288224
 1.0890516  0.85968965 0.99396485 1.0184611  1.340783   0.9915216
 0.8074946  1.0937997  0.89614075 0.92555696 0.92249125 1.06836
 1.0945051  1.1990464  1.2518855  1.0011524  1.0584855  1.084881
 1.129394   1.0110654  0.95151186 0.9172803  1.0703452  1.1543664
 0.92696637 1.0637054  1.0263882  1.0240661  1.0460824  0.9523244
 0.99517345 0.9826887  0.8898125  0.9931934  0.8809996  1.102106
 1.0305147  1.0053109  1.0162545  1.0197158  1.0817949  1.0875779
 0.96660054 1.0985295  0.955906   0.98514175 0.9593047  1.1151574
 1.0390878  0.7984252  1.00822    0.8821178  0.97307414 0.95690507
 1.0869673  0.85821766 1.0369554  1.0443501  0.93238896 0.9339115
 0.8809664  0.94449604 0.99664664 0.94509137 0.99691635 0.942257
 0.8346254  0.953834   0.91468567 0.9108405  0.8326424  0.84618
 1.0464793  0.83937436 0.79742694 1.0033115  0.9644862  1.109055
 1.0486726  0.9997778  1.0507393  0.9905602  0.85270303 0.8688109
 0.9387683  0.83214253 1.085999   0.99478817 1.1693879  1.1990445
 1.1851245  1.0135545  1.0726894  0.92318624 1.0118586  0.9458767
 0.860484   1.0330664  0.8787128  0.9492683  0.801693   0.9096865
 0.9156684  1.2122912  1.0723681  1.09861    0.9614971  0.9216521
 0.95096505 0.97557324 0.88504684 0.87190384 0.95412344 1.0437455
 1.036047   1.2467719  0.9816674  1.0265403  0.9455423  0.9144354
 1.2272844  0.9062307  1.0974648  1.1945205  1.0401767  0.81024414
 1.0411997  0.9802851  1.0622863  0.94839716 1.0308403  1.1905357
 1.0508655  0.9537198  0.9476324  0.8476335  0.972704   0.98624116
 1.0599685  0.87361026 1.0085651  1.001896   1.1669599  1.1078342
 0.8919343  0.9395977  1.0810847  0.7863371  1.1574033  1.1696912
 0.86863405 1.1409     1.0650543  0.99833536 0.97342277 0.88076186
 0.94068795 1.0930513  1.0009453  1.0721594  1.0432477  1.0753263
 1.0286102  0.9471748  1.1445482  1.002499   0.96732277 0.8356442
 1.0499277  0.9913592  1.1673626  1.0204772  0.71653605 1.2517568
 0.9774044  0.9661343  1.1103706  1.1836727  1.0097057  0.9007681
 1.0448788  1.1135617  1.0307484  1.1966889  0.96819973 1.0675042
 1.0438799  0.9250837  1.014111   1.0479045  1.3778756  1.1119589
 1.0732056  1.1112131  0.8653387  0.8994413  0.9925078  0.95502996
 0.97851115 0.9832383  1.0352085  1.0844269  0.9927635  1.0873092
 1.0288157  0.9128952  1.1381487  0.957886  ]
resnet_block_4/batch_normalization_12/beta:0
(256,)
[-0.21047202 -0.3468934  -0.39714786 -0.30293056 -0.26409978 -0.3227822
 -0.29827476 -0.33730665 -0.29040572 -0.24653634 -0.245366   -0.33895877
 -0.22574446 -0.3093502  -0.16148174 -0.27277455 -0.34970614 -0.30636123
 -0.3522972  -0.21414104 -0.36974588 -0.24459304 -0.28435567 -0.32446122
 -0.39424127 -0.28930715 -0.23909414 -0.33696872 -0.24452606 -0.3351805
 -0.24477577 -0.32913414 -0.28268328 -0.23627079 -0.2705327  -0.27097854
 -0.27374265 -0.37867635 -0.38248482 -0.35692066 -0.2583763  -0.31898874
 -0.3914589  -0.28370374 -0.23931469 -0.3126656  -0.34468645 -0.26106304
 -0.27028134 -0.332716   -0.22513159 -0.36510664 -0.23065092 -0.27172014
 -0.29890522 -0.23390085 -0.31931826 -0.308188   -0.2953792  -0.2373361
 -0.2538112  -0.19288626 -0.20345837 -0.2754764  -0.26865494 -0.27595288
 -0.26334998 -0.23571876 -0.29327783 -0.30590263 -0.3769467  -0.21583985
 -0.2335241  -0.22750434 -0.33781162 -0.2969239  -0.22432142 -0.27518913
 -0.25564393 -0.3113736  -0.3078811  -0.32526708 -0.20978902 -0.26089314
 -0.2868782  -0.36090484 -0.38784203 -0.2739745  -0.26789612 -0.2543117
 -0.30147114 -0.2872283  -0.36612323 -0.2585226  -0.27319998 -0.21085961
 -0.3899624  -0.32066268 -0.28357142 -0.28385237 -0.23043664 -0.24363747
 -0.3312228  -0.33709008 -0.36106068 -0.33857027 -0.34506577 -0.21662696
 -0.2522085  -0.3572576  -0.35184807 -0.34691688 -0.31181937 -0.23317787
 -0.17938805 -0.27606332 -0.2447971  -0.3820046  -0.35821706 -0.3186644
 -0.2606277  -0.24483989 -0.3274427  -0.23686527 -0.31127733 -0.32922918
 -0.22597168 -0.1389115  -0.3278131  -0.2019221  -0.16437148 -0.31591967
 -0.3197509  -0.25633004 -0.3042093  -0.18885985 -0.2626344  -0.27380782
 -0.34060517 -0.2917942  -0.23019299 -0.2794545  -0.29016817 -0.24698894
 -0.28276286 -0.26946673 -0.395766   -0.35217434 -0.3421257  -0.34759012
 -0.31857428 -0.3009278  -0.28464055 -0.36962494 -0.3045902  -0.34793207
 -0.25907254 -0.36578152 -0.2813314  -0.29953882 -0.35919258 -0.1843727
 -0.28438956 -0.20921823 -0.19444624 -0.21826828 -0.29240185 -0.27513152
 -0.24475034 -0.3377568  -0.29051355 -0.17508456 -0.33359936 -0.26768947
 -0.2568817  -0.29110223 -0.2787747  -0.26605597 -0.17553808 -0.3199939
 -0.2822732  -0.2204542  -0.3548218  -0.33901134 -0.3018283  -0.26814714
 -0.23113286 -0.36065018 -0.26426607 -0.2986982  -0.18978862 -0.24403799
 -0.3801956  -0.25955245 -0.23712555 -0.37382832 -0.26632014 -0.3312571
 -0.29265425 -0.22721934 -0.326008   -0.31108052 -0.28806725 -0.2600781
 -0.23444688 -0.2386297  -0.2604934  -0.273308   -0.33532515 -0.27813342
 -0.2926641  -0.23650216 -0.28123623 -0.18222493 -0.31001616 -0.24983208
 -0.30379623 -0.2811764  -0.17122406 -0.3770882  -0.3573583  -0.18864691
 -0.270193   -0.3001113  -0.2607855  -0.2947069  -0.21187393 -0.25724858
 -0.3714187  -0.31646863 -0.37186223 -0.19580652 -0.26135275 -0.34835175
 -0.30038995 -0.3419618  -0.3146221  -0.24206796 -0.2763498  -0.27417603
 -0.17687638 -0.22970958 -0.2729711  -0.22854868 -0.3464152  -0.20129028
 -0.31756952 -0.3370768  -0.23642509 -0.2611238  -0.29716498 -0.24234182
 -0.32185283 -0.3240748  -0.23429632 -0.44780603]
resnet_block_5/conv2d_13/kernel:0
(3, 3, 256, 256)
[[[[-1.14685319e-01  3.77337523e-02 -7.48836622e-02 ...  5.87921329e-02
    -9.83500332e-02  1.73516408e-01]
   [ 1.96220297e-02 -1.56094939e-01 -1.41165644e-01 ...  2.28648350e-01
    -2.01282669e-02  1.95931956e-01]
   [-1.54812783e-01 -5.44572137e-02  2.01451182e-02 ... -1.31309694e-02
    -1.08700946e-01 -1.60953090e-01]
   ...
   [-3.77805494e-02  4.19835225e-02 -7.56048486e-02 ...  5.24627566e-02
     5.10531068e-02  1.20674349e-01]
   [-5.43028861e-02  2.52650291e-01  6.76387399e-02 ... -3.55188735e-02
    -5.03755361e-02  2.16889650e-01]
   [ 5.19455448e-02 -1.17996804e-01  2.68743336e-02 ... -1.44201726e-01
     1.86648895e-03 -3.72843444e-02]]

  [[ 2.35757589e-01  1.95679307e-01  1.05405720e-02 ... -7.79087245e-02
     6.50929213e-02  7.54754394e-02]
   [-9.38594788e-02  2.32139975e-01 -1.46516040e-02 ... -1.41197756e-01
     8.03157687e-02  4.03473638e-02]
   [-1.56679451e-01  1.35123670e-01 -3.24879065e-02 ... -1.20185243e-04
     1.41297251e-01 -1.24681614e-01]
   ...
   [ 8.91486034e-02  2.14367494e-01  1.63700283e-01 ...  1.16469979e-01
    -2.90786415e-01 -4.11148183e-02]
   [ 1.15816988e-01 -4.45984714e-02 -7.37157390e-02 ... -1.25948578e-01
     1.34256721e-01  5.04964925e-02]
   [-9.84881818e-03  1.05707847e-01  1.63106605e-01 ... -2.60279924e-01
    -2.70059314e-02  6.53239666e-04]]

  [[ 1.21188797e-01 -3.14024985e-02 -1.12249464e-01 ...  1.39685676e-01
     9.69907120e-02 -1.72236711e-02]
   [ 8.41240883e-02  5.21262363e-02 -1.49309933e-02 ... -2.04411146e-04
     1.47648707e-01 -1.25816995e-02]
   [-4.01871726e-02 -2.16220412e-02  1.64787218e-01 ... -7.81092327e-03
     6.05534166e-02 -2.67159510e-02]
   ...
   [ 6.58773109e-02 -1.33489102e-01  7.46451765e-02 ...  1.87547703e-03
    -2.19181851e-02  7.90861771e-02]
   [-1.67066962e-01  5.43820411e-02  7.14093819e-02 ...  1.00282624e-01
     5.34578599e-02 -1.45711994e-03]
   [ 1.24818925e-02 -1.84557453e-01 -8.86168107e-02 ...  2.26462875e-02
     6.79571778e-02 -2.13633165e-01]]]


 [[[-1.63480937e-01  1.23206787e-02 -1.79397836e-01 ... -2.10770611e-02
    -1.23628750e-02 -9.86119267e-03]
   [-2.43748054e-01 -4.38320637e-02 -6.87865317e-02 ... -1.43055856e-01
    -1.09856501e-01 -2.45551899e-01]
   [-4.63391878e-02  1.29252896e-01 -1.17243506e-01 ...  1.30195441e-02
    -5.44009134e-02  2.13510897e-02]
   ...
   [ 2.48592403e-02  5.94790503e-02  1.10442825e-01 ... -5.32046193e-03
     2.98711956e-02 -1.25231341e-01]
   [-2.22525105e-01 -1.77132692e-02  1.93288282e-01 ...  1.86251283e-01
     1.06605433e-03 -2.26467494e-02]
   [-4.60695941e-03 -4.19082157e-02  2.17760175e-01 ... -4.09303829e-02
    -9.47455410e-03 -1.67891696e-01]]

  [[-7.67048448e-03  1.69906065e-01  2.42917627e-01 ... -1.62005723e-01
     1.29057048e-02 -1.29777119e-01]
   [ 1.57862559e-01  7.97076002e-02  6.05344549e-02 ... -1.16517290e-01
     9.97300297e-02 -1.80352494e-01]
   [ 1.55646354e-01 -3.29282843e-02 -2.98126191e-02 ... -1.49670228e-01
     1.25688896e-01 -4.92576361e-02]
   ...
   [-5.96850514e-02 -5.52193522e-02 -7.98838809e-02 ...  1.60474390e-01
    -4.98474129e-02 -5.23530804e-02]
   [ 1.43830955e-01 -4.11120281e-02 -4.79907356e-02 ...  8.20393115e-03
     2.08374575e-01  4.59345011e-03]
   [-9.61571112e-02  6.92880452e-02 -2.11317971e-01 ... -6.50775209e-02
    -2.94906832e-02 -2.07760632e-02]]

  [[ 5.07691726e-02 -9.99224633e-02 -2.58946538e-01 ...  1.54803574e-01
